-0.521384 -0.78325 0.336881 -0.0525664 0.00593654 0.0446105 -0.121219 -0.185307 0.00847631 -0.0153581 -0.257974 0.194704 0.462519 -0.11628 -0.122834 -0.395541
-6.98149 -4.67233 4.85038 -15.45 3.60177 3.31598 1.37224 -0.0756577 0.046887 -0.215019 -0.456003 -0.173926 -0.201003 -0.14805 -0.136615 -0.200118
-1.6439 -1.73214 3.18961 14.8183 -3.27443 -2.59464 0.789722 0.175439 -0.455578 -0.353161 0.285068 0.406302 0.00442214 -0.263166 0.162079 0.214202
-0.375134 -1.25046 1.66083 -8.9605 4.44638 1.24217 4.53745 -0.00391196 0.5 -0.0497407 0.188026 -0.441902 0.200292 -0.2733 0.122603 -0.1633
0.535323 -0.14895 0.784039 17.3115 -4.84861 0.657927 0.631714 -0.17719 0.319447 -0.5 -0.0497013 0.212586 0.240278 -0.384363 -0.379402 0.0771078
-1.34451 -0.952969 1.15955 -0.261353 -0.600548 0.208516 -0.002798 0.259866 0.220331 0.205229 -0.382339 0.476905 0.379992 -0.126593 0.0436595 -0.218551
-1.10005 -0.759363 0.447659 -1.21864 -0.353915 0.989989 -0.109161 -0.143205 0.209379 0.482175 0.440683 0.16625 -0.0437438 -0.436433 0.45208 -0.013644
1.80621 0.583035 -0.367712 17.7766 -4.72063 0.818454 0.841096 0.219702 0.308783 0.0531521 0.0256602 -0.428096 0.353967 -0.5 0.5 0.119431
-0.631526 0.0110148 0.383439 -0.777662 -0.153446 -0.0378991 -0.0153632 0.171665 0.315692 0.163195 0.166205 0.20709 -0.340621 0.0652422 -0.104345 -0.151583
-1.0386 -0.429956 0.741608 0.0156697 -0.148279 -0.304367 -0.0727205 -0.0447244 -0.145527 -0.189488 -0.167618 -0.0634519 -0.268655 0.173156 0.5 -0.399578
-1.42864 -0.390721 0.850384 0.342015 1.92289 1.32251 -0.152403 -0.204946 0.0299583 0.0694525 0.148792 0.0661025 0.356403 0.270376 0.441099 0.0163442
0.935999 -0.0228759 0.611011 17.8693 -5.12553 0.21284 1.00223 0.18003 -0.26821 0.207117 -0.493055 -0.0311286 0.0737483 -0.189342 -0.0490025 0.158705
-1.37324 -1.2022 1.42173 -1.55188 -0.209426 2.48463 -0.157389 0.135761 -0.290931 0.176082 0.5 0.5 -0.084502 0.451071 -0.111735 0.382578
0.113901 -0.181964 0.70761 14.833 -4.83266 -3.4062 0.441561 -0.246507 0.190651 -0.236134 -0.363473 0.251761 0.469201 0.0429909 0.0484523 0.0543401
0.109178 -0.381473 1.47695 17.2143 -5.51559 0.312412 1.31421 -0.156794 -0.144295 0.0948365 0.134581 -0.388255 -0.00733865 -0.209366 -0.00307499 0.5
-0.73125 -0.612453 0.28347 -0.926435 -0.537179 0.280543 -0.0285038 0.174249 -0.0806727 0.110518 -9.02604e-05 -0.0623351 0.427635 -0.0554505 0.023587 0.00812126
0.0766681 -0.834188 1.15522 2.78214 -0.589255 4.62003 3.17123 -0.14264 -0.268943 0.0907257 0.0907821 0.0493484 -0.195246 0.33068 -0.00894986 -0.0139208
0.78562 -0.426597 0.623352 9.8584 -3.598 -0.844275 1.66421 0.147081 0.167798 -0.328413 -0.31212 0.140482 0.5 -0.0661852 0.0602079 -0.118181
-0.234691 -0.64307 1.2462 4.95626 -0.706229 4.43559 3.24379 0.262256 -0.388757 -0.284276 0.5 0.191865 0.30181 0.0852233 -0.5 0.116289
-0.686429 -0.322721 1.0058 14.4349 -2.05251 -2.68259 0.822479 -0.1655 0.0788542 0.368763 -0.335682 0.258971 0.442745 0.485187 -0.115581 -0.0949794
-0.0811863 -0.189868 0.250879 -0.219471 -0.480177 -0.0325052 0.194442 0.082645 -0.0962931 0.371235 0.0515229 0.403905 -0.333572 0.0145466 -0.095639 0.284268
0.446055 -1.28657 1.43063 16.0462 -5.20964 0.234726 1.20217 0.177283 0.137361 0.375911 0.0693849 0.115218 -0.095528 0.0684982 0.319151 0.0345499
-1.04035 -1.12411 0.998931 -0.714918 0.442671 1.08483 -0.299286 -0.45877 -0.211384 0.0272076 -0.174409 0.0184867 -0.161818 0.379163 -0.0546335 -0.363066
-1.03256 -0.816994 0.857059 -1.67617 -0.451777 2.4976 0.095731 -0.126548 -0.253295 -0.0171329 -0.179543 0.322142 0.0349582 -0.179782 -0.154238 0.265137
-0.271958 -0.0766034 0.261402 -0.377287 -0.205095 -0.299536 -0.0791412 0.0188134 -0.352605 0.012131 -0.268271 -0.440357 -0.346081 -0.0219535 0.00325985 0.147918
-0.898306 -0.567448 0.358652 -1.04965 -0.600944 0.206586 0.182076 0.0845266 0.321828 0.136499 0.160666 0.201005 0.131106 -0.455779 -0.396364 -0.5
-1.11256 -0.707471 0.332757 -1.19218 -0.886149 0.540129 -0.304584 0.24639 0.138898 0.119244 0.10924 -0.5 0.19829 -0.254259 0.0817911 0.5
-1.06999 -0.925133 1.54389 -0.694093 -0.689907 2.37558 0.019666 0.13791 0.113293 -0.294268 0.0348456 0.0599175 -0.221132 -0.0611551 0.5 0.00754153
0.729878 0.436789 0.537169 17.2203 -5.05273 0.76641 0.983108 0.252733 -0.298877 0.371907 0.214749 0.169304 -0.116122 0.0718664 -0.1463 0.0419041
-1.37752 -1.54195 1.56436 -1.40764 0.774986 2.65314 -0.220752 -0.0856557 -0.337467 -0.153242 -0.382139 0.12475 0.0729527 0.00381047 0.231362 0.0839854
-0.00239203 -0.764252 1.37326 16.5019 -5.03781 0.411781 1.01518 0.384984 0.330283 0.463738 -0.270686 0.299213 -0.0600326 -0.108176 -0.105069 -0.200337
-0.781995 -0.678714 0.99568 -1.02282 -0.393537 0.620105 -0.25896 0.0447948 0.188308 0.0305733 -0.265082 -0.170031 0.411114 0.466991 0.0350946 0.250823
-0.764876 -0.7048 1.25732 -1.728 -0.363124 2.80851 -0.126005 0.148591 -0.358305 -0.17817 -0.132889 -0.332325 -0.0706596 -0.449549 -0.0846804 0.136891
-1.31922 -1.66257 1.32378 -1.0713 -0.149764 2.49533 -0.098592 0.240303 0.323516 -0.338761 0.0702687 0.457934 0.352671 -0.0257636 -0.0191326 0.5
-3.88185 -2.7958 3.23091 -12.6271 5.16696 -2.30294 1.65637 -0.0496689 0.211915 -0.193357 0.00933862 -0.260791 0.164469 0.38411 -0.221314 -0.319854
-1.76157 -1.68481 1.59506 -2.02501 -0.223816 2.24269 -0.32166 0.377216 -0.0567484 0.265549 -0.0161066 0.137113 0.146432 -0.247878 0.0247179 0.0263695
-1.258 -1.77933 1.3371 -0.485756 -0.594121 1.74417 -0.264959 -0.211997 0.0120954 -0.264434 0.152508 -0.166811 0.118818 -0.327801 0.00123152 -0.5
-1.00762 -1.70916 3.02186 15.1942 -4.01652 -1.45143 1.38373 0.1794 -0.0394623 0.103855 -0.0288767 0.290761 0.109506 0.00716212 -0.0739135 -0.320439
-1.67063 -1.28703 1.56071 -1.29096 0.179104 2.01772 -0.194063 -0.253048 -0.424769 0.194721 -0.0608867 0.167539 0.218883 -0.260174 0.364739 0.405235
-3.32549 -5.64459 6.21607 14.0852 -3.24292 0.776149 0.231929 0.00631942 0.00284222 0.0609211 -0.0567023 -0.151672 0.00725667 -0.0597094 0.178122 0.475883
0.539362 -0.199522 0.905945 17.0814 -4.34041 0.752655 0.665169 0.277369 -0.163666 0.188661 0.277165 -0.0555172 -0.125345 -0.0785485 -0.122519 0.175868
0.458321 -0.162546 0.929732 16.9863 -4.38965 0.345503 0.978839 0.182701 0.00848013 -0.132872 0.369024 -0.173571 -0.319493 -0.276536 -0.347853 -0.395001
-3.54071 -2.28819 2.22948 -17.1628 7.04311 2.13997 2.82827 -0.116284 0.197819 -0.5 0.399768 -0.327867 -0.302801 -0.0719426 0.0352319 -0.152731
-1.24362 -1.54121 0.547284 -1.06295 0.300612 2.50337 -0.178571 0.382483 -0.0699066 -0.0981042 -0.189498 -0.426737 0.458218 -0.127518 0.000356452 -0.204638
-0.665304 0.191451 0.240853 0.0750217 -0.0494136 -0.287545 -0.117409 -0.0825361 -0.331175 0.325186 0.0956327 -0.451124 -0.0970456 -0.230199 -0.5 0.0273525
-0.99503 -0.114499 0.471612 0.0504525 -0.810169 0.00371968 -0.121951 -0.373334 0.258849 0.168832 0.300888 -0.146101 -0.0501123 -0.0457876 -0.187879 0.132888
0.265928 -0.640292 1.18001 17.1662 -5.01371 0.282973 0.692442 0.264718 -0.117837 0.265609 -0.0386105 0.290295 -0.368064 -0.150332 -0.5 -0.5
-2.23499 -1.3493 1.62803 -6.14013 2.73036 -2.3968 -0.496239 0.311865 -0.00951302 0.467146 0.0446289 0.19869 -0.215273 0.278399 -0.371983 0.187534
0.94922 0.312855 0.0662383 17.6775 -4.36207 0.933278 0.619671 0.447618 0.0773688 0.35073 0.101353 -0.105802 0.199592 -0.208709 0.229042 -0.466988
-0.0381883 -1.09843 1.2644 17.0074 -5.12379 0.226586 1.04471 0.0593596 0.190809 0.15512 0.496377 -0.292683 -0.150187 0.0353177 0.0838005 0.352635
-1.2196 -1.40375 1.30621 -1.94418 -0.396718 2.24022 -0.560886 -0.086699 0.0687953 -0.0377722 -0.0710341 0.0838135 -0.301348 0.243986 0.16538 -0.00317784
-1.14934 -1.19915 1.52841 -1.75494 -0.966862 2.0421 -0.113758 -0.468103 0.231501 0.253473 0.320959 0.168503 0.0994549 0.11586 0.22216 -0.136884
0.302121 -1.27074 1.3689 16.7417 -4.74252 -0.0922109 0.690263 -0.0048783 -0.0177094 -0.0238553 -0.250079 0.270094 0.0763671 -0.109696 0.212994 0.240292
0.247441 -0.764122 1.42119 15.9013 -4.66329 0.498007 1.27384 -0.231633 -0.15048 -0.041448 -0.102677 0.147746 0.0455513 0.0082137 -0.5 0.196372
0.0165291 -0.335432 0.00925432 -0.229327 0.0576888 -0.234832 0.0693286 -0.208701 -0.164357 0.162612 -0.270117 0.332322 -0.0617855 0.5 0.129469 0.110166
-3.43513 -4.95359 6.72155 14.081 -2.81709 0.69582 0.315779 0.206093 0.334431 0.147164 -0.0799303 0.309814 -0.0594816 0.0289651 0.0434045 -0.341788
-0.934612 -1.0282 1.01458 -1.61733 -0.524917 1.56719 -0.0510108 0.385933 0.0741205 0.143805 0.233693 0.0403129 0.279848 0.113467 -0.344084 0.0882108
0.506779 -0.388178 1.27545 17.3667 -4.86473 0.35554 0.958332 -0.149098 0.0786965 0.093331 -0.208341 -0.313257 0.11474 0.182163 -0.151895 -0.0107713
-6.56051 -3.36568 2.89678 -16.5471 4.251 2.03265 2.53986 -0.0479547 -0.209415 -0.286948 0.0610008 0.235451 0.0670746 0.0720543 -0.338891 0.100168
-0.0136704 0.018399 0.501681 -1.88236 0.634195 -0.217335 -1.30567 -0.27177 0.0363606 0.199328 0.254906 -0.200723 -0.0177393 -0.375637 -0.00298461 0.0994186
-0.287773 -0.144188 -0.369691 -0.211846 0.0166811 0.0096583 -0.122799 0.160072 -0.192709 -0.286051 -0.063754 -0.223366 0.346591 -0.0361193 -0.0814639 -0.0189872
-4.71635 -3.31491 2.65067 -16.7425 5.25156 5.32337 1.87583 -0.0821938 0.0542295 -0.150979 -0.0758341 -0.156464 0.169299 0.241134 0.153901 0.249552
-2.1871 -0.669422 1.71233 12.1493 -3.00573 1.6842 -1.31017 -0.100396 0.309749 0.400048 -0.0197062 -0.065044 -0.04475 -0.0358598 -0.272167 0.245141
-0.292739 0.274765 0.056736 -0.508393 -0.214416 -0.0873369 0.0198938 0.217293 0.23329 0.125619 0.290459 -0.0613885 0.201977 -0.168624 0.151922 -0.228338
-1.00824 -0.868837 0.632697 -0.686368 0.0499903 2.60986 0.102134 0.159635 0.200392 -0.410448 -0.0113224 0.0940298 0.472739 0.5 -0.330933 -0.281343
-1.16208 -0.954371 0.866734 -1.86124 -0.196404 1.05603 0.266008 -0.146228 -0.0282015 0.241217 0.341111 -0.154033 0.5 -0.0851138 -0.214462 -0.0856264
0.641448 -0.0771056 0.24099 17.2768 -4.176 0.505803 0.612585 0.478229 -0.5 -0.0826787 0.349665 -0.157292 0.256761 0.25176 0.491552 0.0361678
-0.686243 0.474349 0.0118048 -0.269335 0.0851734 0.150042 -0.323178 -0.151108 0.266733 -0.284274 -0.230486 0.214262 0.277754 -0.431197 0.190634 -0.0941148
1.23964 0.171459 0.384184 17.2597 -4.46999 0.92891 1.17301 -0.0161642 -0.230189 -0.173756 -0.00382695 -0.200322 -0.31232 0.0231769 0.0489915 -0.0553898
-0.32342 -0.513256 1.02242 13.8159 -4.76845 -0.670197 1.1579 0.0150654 0.106811 0.0236677 0.242916 -0.5 0.248236 -0.163435 0.0186399 -0.200605
-1.37972 -1.20241 1.47713 -1.31359 -0.0207301 2.30705 -0.173475 0.275761 -0.110715 0.000114029 0.185726 -0.156288 0.0107868 -0.451508 0.5 0.307221
-1.50606 -0.762726 0.644515 -0.502843 0.0139696 0.673394 -0.268596 -0.5 0.225336 0.0102941 0.186109 -0.00792287 -0.087622 -0.0345069 -0.0359812 -0.275902
0.63787 0.027659 0.963802 17.1342 -4.85775 0.152288 1.01894 0.118769 -0.296634 -0.5 -0.0903558 0.0165611 0.233113 -0.248942 0.125118 -0.0385086
-0.238951 -0.274726 0.361808 -0.263716 0.233932 -0.122737 0.0609924 -0.377676 0.120216 0.108887 0.0131168 0.296168 0.00469742 -0.127985 0.285614 -0.0120289
0.832615 0.0635174 1.11631 17.1319 -4.57074 0.0935873 0.847199 -0.158271 0.280103 -0.0227877 -0.265072 -0.0294567 0.00650727 0.282352 0.287627 -0.412378
-1.29205 -1.25273 1.4133 -1.55212 -0.718049 2.04252 -0.100008 -0.022137 -0.0278039 0.129126 0.0759697 -0.0360192 -0.117892 -0.305408 0.491732 -0.166432
1.10829 0.790741 0.418612 16.9263 -4.32873 0.573947 1.00551 -0.0828696 -0.145277 0.0723209 0.180371 0.160309 0.320795 0.318494 0.244993 0.456704
-0.091818 -0.8067 1.36593 16.8544 -5.19903 0.457187 0.880746 0.184266 0.0973314 0.0179379 0.0777974 0.4354 -0.0178787 -0.0324618 0.15669 0.0430002
-1.31579 -0.59924 0.278603 -0.729606 -0.527374 1.90294 -0.239468 -0.350246 -0.0743434 0.119589 0.373542 -0.216719 0.128762 0.291116 0.269507 -0.318204
-1.32209 -0.661323 0.405754 -0.594432 -0.780246 1.7424 0.332818 0.0749456 0.422415 0.293066 0.172467 -0.0471647 -0.353696 -0.430798 -0.0266605 -0.282806
-1.04053 -0.737912 0.232988 -0.603438 -0.117067 0.217029 -0.252654 -0.390675 0.162243 0.320237 0.0683554 0.212308 0.5 0.185657 0.147756 0.0587084
-0.0169595 -0.884989 1.33186 17.1534 -5.35964 0.361188 0.707421 0.119363 -0.189262 0.123209 0.110133 0.476899 -0.0422095 -0.056259 0.226273 -0.0840193
-1.61721 -1.66952 2.55196 13.6397 -3.84992 3.32412 -0.99773 -0.0830766 0.00653353 0.16847 -0.206322 0.0694478 0.298081 -0.0227173 0.225271 0.0859
-0.107212 -0.78054 1.58906 14.5956 -4.79958 0.193953 1.29957 -0.00314654 0.0915198 0.25312 -0.383008 0.214072 -0.192246 0.0563109 0.416076 0.326936
-4.05785 -2.32641 2.71224 -14.0986 4.98972 5.4127 2.52999 -0.0921113 -0.0721385 0.194732 -0.132875 0.130562 0.117705 0.161351 0.278909 0.170047
0.376346 -0.798726 1.90555 14.4314 -4.82432 -0.891604 1.35879 0.140878 -0.0163371 0.354907 -0.16159 0.180633 0.190042 -0.0801757 0.0357954 -0.00994427
0.311171 -0.310619 0.361391 8.24873 -2.67246 1.89423 2.27395 -0.5 -0.214839 -0.390574 -0.175748 0.0428367 -0.106948 -0.399029 -0.488651 -0.343259
-1.35373 -1.06653 1.39724 -1.74767 -0.458263 2.6855 -0.000778224 -0.0619631 -0.153331 -0.499463 0.296062 0.5 0.106843 0.395287 0.269938 0.0123623
-1.33518 -0.836225 1.34093 -1.26925 0.200894 -0.112094 -0.392238 -0.0276022 -0.0839026 0.1998 0.5 -0.0501399 0.0667818 0.200149 0.121555 0.379314
-1.49528 -1.18194 0.871133 -0.965484 0.00849975 2.42946 -0.507264 0.28683 -0.132531 -0.0177964 0.192042 0.0309483 0.10393 -0.402918 -0.241666 -0.176535
0.129579 -0.821815 1.4976 17.0984 -4.72321 0.102332 0.55384 -0.124673 0.360698 0.363266 0.167362 0.177119 0.147352 0.0271042 0.332269 -0.236266
-0.137942 0.00662242 -0.0266859 -0.451825 -0.0723386 -0.137133 -0.166475 -0.0392885 0.103444 0.305698 0.0583522 -0.18696 0.266654 -0.188785 0.162863 0.271185
-4.8577 -2.60252 2.95313 -16.6046 5.36695 0.925961 2.91673 0.256731 -0.115638 -0.205187 -0.0179481 -0.291299 0.0497195 0.154051 -0.212664 -0.0283615
-0.865736 -0.438983 0.0954798 -0.53919 0.476073 2.74478 -0.17536 -0.273458 -0.102528 0.228894 -0.347548 0.269603 0.365262 0.166366 -0.068117 -0.00257783
-0.804678 -0.711238 0.340825 -0.343863 -0.06372 0.120239 0.0772441 -0.137187 -0.304192 0.228307 -0.369262 0.108322 -0.140329 0.0564903 -0.198293 0.207594
-0.745543 -0.528539 0.437631 -1.92759 -0.784719 0.477852 -0.0578448 -0.207498 -0.0769544 0.470528 -0.108438 -0.5 -0.0280764 0.11432 0.124859 -0.0408718
0.063534 0.119404 1.33433 15.0654 -4.88948 -0.560927 0.86259 -0.412126 0.00904419 -0.0281536 -0.243956 0.208056 -0.148622 0.373902 -0.112298 0.0367317
0.81506 -0.468277 0.324451 17.0904 -4.71012 0.483261 0.96149 0.0465206 0.146408 -0.161162 0.245859 -0.0277815 -0.0393249 0.5 -0.414238 0.0322664
-0.233245 -0.699763 1.09228 16.8287 -5.77061 0.117917 1.43286 0.119982 0.0221861 0.101774 -0.141111 0.161865 -0.140447 -0.466667 0.109939 -0.209565
-0.959309 -0.788205 0.829811 -0.750649 -0.277497 -0.0535279 -0.0415737 -0.114932 -0.145105 0.309403 -0.0473323 0.376731 0.5 0.110674 0.382846 0.257542
-0.175869 -0.5 -0.0358167 -0.5 -0.11047 -0.26682 -0.37757 0.0825427 -0.186515 0.123377 -0.0110184 -0.161492 -0.0345999 -0.335257 0.124945 0.250845
-0.35085 -0.50441 0.551661 -2.75694 1.1253 -1.29357 -1.17118 0.120632 -0.218992 0.112001 0.294193 -0.250701 -0.429678 -0.178734 -0.225451 -0.0741941
0.394086 -0.428164 1.82762 17.1696 -5.29702 0.342358 0.764135 0.403599 -0.049457 -0.0153713 0.164694 0.0523309 0.00269336 0.332472 0.117069 0.207255
-0.877298 -0.52885 1.32343 -1.55691 -0.39284 2.64507 -0.536257 0.396974 -0.0265737 -0.23088 -0.0612122 0.264228 0.240441 -0.026392 0.167107 -0.299997
-3.11278 -4.4074 5.88822 15.3315 -4.42903 0.282599 0.705523 -0.183788 -0.334533 0.498423 -0.211374 -0.481139 0.47012 0.0513125 -0.253114 0.0166208
-0.699712 -1.62621 2.00445 15.5698 -4.90126 -1.21061 1.25051 -0.498276 0.388851 -0.157507 0.00568803 -0.432013 0.301257 -0.070053 0.5 0.0444986
-3.82069 -1.89235 2.28333 -17.406 7.23078 2.25139 3.43776 0.263824 -0.0943972 -0.358227 0.350694 -0.322586 0.0962827 0.276098 0.104388 -0.359098
0.581104 -1.24085 1.64014 16.5562 -4.93869 -0.423913 1.36188 -0.017186 -0.0927211 0.0185866 -0.359567 0.0494177 0.0930483 -0.0179519 0.283748 -0.232554
-1.74696 -0.881787 0.863816 -0.569872 -0.0961762 0.227829 -0.281918 -0.138306 -0.32968 0.150971 -0.0935958 -0.210695 -0.1741 -0.181505 -0.16023 0.196736
-0.234592 -0.578997 1.13392 10.4825 -4.25838 -4.39472 2.55202 -0.0978672 -0.343443 0.393856 -0.069944 -0.5 0.14488 -0.193864 -0.5 0.468993
0.512729 -0.844675 0.969744 17.1181 -5.2638 0.948605 0.740146 0.175914 0.105131 -0.238181 -0.103502 0.15599 -0.0288481 -0.00830063 -0.0478187 0.0553585
0.282903 -0.792649 1.33035 17.166 -4.48511 0.529394 1.2971 -0.0789834 -0.110764 0.0487816 0.0861821 0.196019 0.036121 0.241403 0.0629536 0.435119
0.612095 -0.767988 1.36622 17.3953 -4.76038 0.366248 0.745498 0.221185 0.157849 0.0837126 0.285481 -0.026368 -0.110239 0.317204 0.11757 -0.155483
1.06637 1.50577 -2.36426 4.96331 -8.03396 -0.355178 0.289831 -0.219147 -0.425881 -0.0531869 0.0221828 -0.0566501 0.264566 -0.0615448 -0.285801 0.429285
-1.10215 -1.12087 0.596834 -0.769782 -0.550851 2.25587 -0.065348 -0.293239 -0.311863 0.0407097 0.0730581 0.242349 0.220423 0.137769 0.287405 0.461114
0.267494 -0.270814 0.577696 18.4087 -4.86321 -2.78992 1.16437 -0.242663 -0.0758364 -0.0710463 0.0787394 -0.264356 -0.33441 -0.400977 -0.129839 -0.082326
-1.17688 -0.695932 1.06711 -1.70992 -0.564474 2.28781 -0.291416 -0.122304 0.348414 -0.0188894 -0.0022676 -0.253635 0.303017 -0.0215542 -0.00807617 0.0883601
-1.29061 -1.65307 2.00949 -2.4061 -0.285043 2.37359 0.278217 -0.0334715 -0.143071 0.331841 0.5 0.311866 -0.286038 -0.175169 0.0765463 -0.329358
-6.82133 -5.17342 5.29931 -6.94827 2.37372 0.301866 -0.638288 -0.24587 -0.240749 -0.0929349 0.11817 -0.0683486 -0.167995 0.0180865 -0.361743 0.203954
1.27679 0.0648316 0.310179 17.4979 -4.64556 0.473873 0.5961 -0.110107 0.0310878 -0.14344 0.163643 -0.5 0.106317 -0.2346 -0.147052 0.272725
0.112262 -0.228308 0.689723 16.9672 -4.62187 0.48434 0.889585 -0.0607936 -0.271109 0.226312 0.0559168 -0.43314 -0.296422 -0.398543 -0.0911299 0.0604062
0.258676 -0.858693 1.15482 15.1253 -5.58515 -0.652217 1.52756 0.114724 0.0176882 0.348589 0.263395 -0.376372 0.390547 -0.308057 -0.0382982 -0.157495
-0.461117 -0.367286 0.643544 -2.91744 1.10844 -1.49036 -1.25671 0.12013 -0.00523909 0.117881 0.137925 -0.034034 0.0117877 0.139937 -0.25932 0.305404
-2.03788 -1.3658 1.53273 -5.55406 2.14785 -2.37272 -0.85698 -0.0311674 -0.146201 0.195464 0.062361 0.323479 0.35947 -0.0502584 -0.459809 -0.184155
-1.23184 -0.422424 0.61267 -0.986178 -0.370532 0.313896 0.242276 -0.0247711 0.146682 0.0329887 0.233069 0.318993 0.0106933 -0.169096 0.0298593 0.117164
-1.62345 -0.73361 0.757885 -1.86646 -0.648038 1.5308 0.170174 0.0467802 0.127231 0.473088 -0.423743 0.309793 0.362305 0.0764237 -0.00217894 0.353744
0.0252425 -0.889295 1.35714 15.8705 -5.08727 0.0603741 1.19948 0.133363 -0.5 0.160543 0.30875 -0.5 0.144279 -0.279717 0.128572 0.5
-1.02914 -1.12831 1.51421 -1.66053 -0.553481 2.6461 -0.365171 0.0664491 -0.369342 0.21983 0.259867 -0.0576342 -0.336628 0.234128 0.350882 -0.0108906
-0.0329876 17.033 3.18809 13.5775 6.95065 -0.210453 -0.977946 7.72201 -0.0159563 -0.0257956 -1.32232 7.24138 -2.48703 2.58903 7.02252 -0.270472 2.94806 2.85072 3.2134 2.97458 -0.112376 6.56914 -1.07683 -2.55257 0.410424 -0.309208 -0.526973 -2.40668 7.4466 -2.64565 6.4265 -0.631073 -2.83137 -2.48169 12.779 -2.23074 -1.67753 3.25083 -2.01413 2.44816 7.11272 6.77139 15.7358 -2.47696 -0.0736026 -0.0643296 6.78895 6.24736 7.51169 6.79045 -2.2315 -2.05139 6.77235 6.16189 -0.0507428 2.45661 -1.56134 6.77775 17.6832 3.20677 -0.0133366 16.965 2.75267 -0.157627 -2.65664 -1.20835 7.01329 -0.14836 7.66638 3.01499 -2.31217 -0.662591 6.87519 -0.036003 6.92079 -2.04247 7.45156 6.65955 -1.88966 -1.91188 -0.201452 6.87536 2.88375 5.41294 14.3601 3.21747 2.78427 -2.69359 3.03378 -2.41522 6.70255 0.00111247 16.4721 -2.73388 -0.143258 -0.471967 4.49448 7.09443 6.23467 0.00361993 0 4.01792 6.92289 -2.67707 3.1404 3.19789 15.82 6.42873 -0.216926 6.59842 7.22917 6.75512 6.79458 0.698151 -2.23916 2.68116 -2.29902 -2.54218 10.3402 7.09073 6.57114 4.72479 4.04395 5.79663 -0.457431 -1.61886 6.47824 -2.65899
0.466011 -25.0942 25.7255 -8.55464 46.8112 0.780162 0.954958 52.5059 0.26598 0.455921 1.19291 49.1705 3.08718 24.8695 45.1886 0.52657 6.24811 14.4083 7.18402 23.4184 -0.00318709 42.0554 1.05649 2.95002 -0.120831 0.695009 0.952617 3.18823 48.5115 2.42342 43.6952 0.79837 3.2017 3.20716 -16.4005 3.93686 1.59359 26.7961 2.31426 30.2381 46.2621 45.915 -20.459 2.50584 0.18163 0.519075 44.7187 -8.7699 50.6618 43.9918 2.43227 2.63857 42.7804 41.4127 -0.673819 30.0016 1.67969 46.3512 -27.4442 -2.79867 -0.114165 -24.648 15.6353 0.089042 2.55074 1.50106 47.8494 0.19839 49.6492 20.8184 2.80991 0.872787 46.4662 0.168169 46.3709 2.37706 48.0333 43.3915 1.63543 1.53536 0.579427 43.9278 20.9808 34.1902 -17.1727 23.6613 11.9665 3.13913 -1.75255 1.88 43.9626 0.0211625 -22.8035 2.35527 0.573253 1.05842 31.991 46.8193 44.29 0.823931 0.0309454 -5.11642 44.0453 2.89752 34.0329 27.0024 -20.6108 42.1929 0.922268 22.4439 45.8958 45.4777 45.7658 8.27845 2.26879 35.8095 2.58503 2.74798 -11.0008 48.796 45.8353 33.3594 -5.35118 -8.13819 0.690128 1.94637 40.9846 3.16289
0.400483 -28.6013 23.9877 -10.0704 46.3603 0.693362 0.685274 53.156 0.304463 0.676192 2.18351 50.6519 0.346299 29.1156 46.3003 0.304936 2.96827 14.6916 3.73599 21.195 0.175176 43.3803 1.01263 0.225223 -0.0673713 0.516602 0.636688 1.20117 48.5032 2.94573 43.4791 0.529565 1.85971 1.61937 -13.2572 1.68433 -3.57511 25.2542 -0.191246 22.8013 44.4097 44.7851 -21.7335 0.81437 0.238118 0.494252 44.9325 -7.07699 49.1101 43.4923 0.908796 1.51487 42.7005 40.3557 -0.504207 22.0116 0.946088 46.0816 -25.5418 -3.01343 -0.14354 -21.827 23.481 -0.0744952 0.348908 1.13333 46.2666 0.116248 48.3829 22.0221 1.45282 0.51907 47.1087 0.0583088 46.4478 0.518936 47.8287 42.9314 1.0275 0.8583 0.494217 44.4016 28.2838 31.201 -8.56083 24.338 11.5749 2.77397 -1.56968 2.4739 43.3876 0.0872133 -22.4731 1.01623 0.334105 0.713085 27.1831 46.7146 44.6079 0.51057 -0.117277 -4.66099 44.9189 2.12943 25.4699 26.283 -21.5949 42.5278 0.87602 25.037 44.8412 43.7814 45.2454 13.1329 -1.00795 39.5923 0.314491 3.7195 -7.34665 49.1123 44.6888 31.2427 -4.70117 -7.35833 0.511881 1.16614 41.4086 2.10965
0.388194 -23.4637 26.2654 -11.473 46.8034 1.05855 1.53023 47.3355 0.678394 -0.066892 1.36709 50.7365 3.31236 31.9067 51.8395 1.00098 7.39211 12.3691 9.676 19.8753 -0.112703 46.0703 1.49058 3.06222 -0.224664 1.17112 1.27488 2.50605 47.9215 3.00944 45.7222 1.32264 3.48181 2.94696 -16.3795 3.6122 1.7089 28.3898 3.25859 31.868 43.8784 43.3466 -30.6192 2.95992 0.00480353 0.366626 48.3895 -8.60454 45.3815 49.1157 3.48442 3.29391 46.9356 41.0939 0.0224911 31.8928 2.04333 47.9132 -23.4277 -2.79261 -0.164868 -24.744 13.348 0.0814344 2.88758 1.65637 42.6521 0.00958231 45.7017 27.0785 2.80746 1.20595 46.5979 -0.0334111 45.0079 3.19874 42.7015 48.1582 1.65098 1.74305 0.844559 50.8742 20.945 37.0344 -16.4259 28.4186 8.97474 3.23898 -2.84962 2.2958 47.0252 0.0570795 -22.9324 2.56508 0.5927 1.6709 33.3629 46.0712 50.9101 0.914417 0.0809447 -4.44125 50.5488 2.84728 33.9641 31.4177 -32.2176 46.4545 1.15188 20.6508 50.8505 45.7326 48.0978 12.8308 2.28124 40.5701 2.79635 3.5417 -12.7917 45.7615 43.7511 40.5084 -4.31738 -8.14789 1.19716 2.07082 43.852 3.5923
0.424177 -30.2294 31.5392 5.54765 46.6128 0.965462 1.16166 45.6607 0.50079 0.601491 0.929499 48.2695 3.40422 20.976 48.4883 0.601408 6.75746 10.503 9.60015 29.0065 0.0297611 45.2632 0.891594 2.77967 -0.270168 0.602612 0.882221 2.77783 46.2062 2.5127 47.5262 0.79151 2.22351 3.09119 -20.8842 3.23541 1.09851 32.6449 3.0625 37.5559 48.2066 46.739 -27.0096 2.29432 0.227203 0.447441 47.3915 -9.29797 48.709 49.1997 2.79172 2.36058 48.1085 45.0834 -0.293489 37.8943 1.56275 48.1914 -31.2663 -2.37482 0.0459921 -26.7429 11.7535 0.0520678 2.31651 1.57072 46.8093 0.387683 48.4846 21.9131 2.98471 0.829616 45.9406 -0.0219977 46.4603 2.48007 44.9116 47.3345 1.69418 1.42602 0.567666 48.1968 20.0622 37.0599 -17.068 25.9968 8.27779 2.83903 -2.04232 2.02304 48.7542 -0.0109188 -28.4529 2.26457 0.502192 1.07631 33.9613 45.7766 46.5608 0.871866 0.113265 -3.46066 48.1661 2.27113 43.6745 32.5382 -29.3053 49.0924 0.984433 17.74 49.0967 50.0438 49.4186 -8.30646 1.96605 37.3734 2.36054 3.29327 -14.2117 45.4714 45.6316 34.3771 -3.61259 -8.73468 0.782224 1.95093 44.447 2.79745
0.268674 -23.3183 26.7268 -5.49966 46.5821 1.15007 0.734569 50.4042 0.251352 0.735787 1.78549 50.6054 3.08053 26.6354 47.9973 0.688461 5.04429 11.5652 7.17776 24.156 0.0014903 43.0652 1.00742 2.44611 -0.0949624 0.437359 0.87407 2.11329 48.0667 2.97507 44.3404 0.537096 3.27786 2.65857 -13.0086 2.85186 1.43619 26.6911 2.87819 30.5302 46.093 45.4931 -23.8821 2.90073 0.0270538 0.66864 46.3431 -6.01788 49.2207 46.3436 3.45165 2.68501 45.5159 41.1635 -0.146062 29.9476 1.53006 47.0695 -26.5174 -1.28658 0.0693196 -22.2612 14.7298 0.0380928 2.87853 1.00749 46.2221 0.303641 48.7918 23.1599 2.65754 1.03857 46.9651 0.107434 46.782 3.15803 47.3597 44.9204 1.56401 1.72187 0.440493 46.4774 20.7423 29.9764 -17.1328 24.5246 8.14301 2.84884 -1.79956 2.37619 45.9589 0.0583712 -25.9257 2.8373 0.395926 0.52022 28.5193 46.536 45.8101 0.543642 -0.117452 -2.71112 46.9482 2.21102 32.5877 28.3891 -25.3989 44.5544 0.821054 19.0639 47.3421 46.2138 46.9567 8.45981 2.16058 39.3427 2.81538 3.47692 -13.976 47.6809 44.6424 30.1587 -2.5992 -5.95014 0.62647 1.51784 41.6781 2.783
2.2214 5.4427 1.89943 4.35547 3.85784
