0.33832 -0.654598 -0.76171 -0.163959 -0.00108322 -0.881748 0.333083 0.142962 0.230662 0.457461 0.787881 -0.100562 -0.878034 0.0617107 0.537047 0.537213
-0.217749 -0.1326 -1.30548 0.0110901 -0.413448 -0.203251 -0.402063 0.329872 -0.248175 -0.681151 -0.231706 0.0414337 0.0834652 -0.0603789 -0.350218 -0.399156
0.166649 -0.725079 -0.270616 -0.203622 0.116722 -0.00367719 -0.429047 -0.142172 0.326084 -0.400837 0.197548 -0.0860303 -0.399838 -0.0702894 -0.441455 -0.0630727
-0.238506 0.473704 0.167552 0.141738 0.160239 -0.0519154 -0.127949 0.16069 -0.0260688 0.291464 0.447272 0.548936 -0.139156 -0.0472478 -0.839836 -0.154981
0.484948 0.698215 0.27831 -0.387153 0.591045 -0.166065 0.191243 -0.687473 -0.139883 0.0114946 0.0115569 -0.0937209 0.962845 -0.279556 0.651881 0.320578
0.23818 -0.151977 0.134923 -0.155805 0.223731 0.00251707 -0.656148 0.621082 -0.326033 0.559449 -0.336224 0.644097 0.147919 0.43782 -1.20295 1.15334
-0.113516 -0.437701 -0.750132 0.0301125 0.34224 0.276912 -0.0536848 -0.746985 0.810063 -0.252234 -0.368588 -0.417714 0.41158 -0.252428 0.0629781 0.411611
0.259134 -0.386052 0.514148 -0.506059 0.164121 -0.136616 0.11581 -1.13204 -0.757041 -0.84076 0.188652 -0.116043 0.0992181 -0.683467 -0.363845 -0.237153
-0.464219 -0.157913 0.213799 0.0919115 -0.0975633 0.742534 -0.160158 -0.272026 -0.863813 0.831224 0.456638 0.300232 -0.269011 0.546858 0.111146 -0.0537352
0.515137 0.72919 -0.169529 -0.156963 0.289345 -0.845873 -0.124702 0.656578 0.0856609 -0.0930534 -0.541358 -0.27276 0.119122 0.0865077 0.556365 0.275872
-0.663851 0.267245 0.0799531 0.492337 -0.268994 0.622392 -0.147675 0.000626194 -0.719792 0.258862 -0.553705 -1.11854 -0.00821215 -0.541325 -0.6153 0.0949395
0.10602 0.706874 0.74685 0.315865 -0.104187 0.894595 -1.25174 0.559024 0.356229 -0.0386422 0.928385 0.107135 -1.18362 -0.0414896 0.182969 0.571777
0.155985 -0.0492857 -0.167431 0.278191 -0.14585 0.159993 0.0575381 -0.104723 0.0489231 -0.0963335 -0.0322206 -1.26889 0.690568 -0.747149 0.56679 -0.172295
-0.219164 -0.253187 0.420885 0.244868 1.42713 -0.0415397 -0.845094 -0.255044 -0.616138 -0.501316 -0.457533 -0.589637 1.04728 -0.126256 -0.466288 0.268034
-0.593096 -1.04686 0.474723 0.546239 0.261919 -0.360191 -0.104697 -0.0156707 -0.195377 0.092446 -0.0168186 0.882341 -0.163549 1.15905 0.268237 0.0110031
0.145658 -0.455479 -0.0942349 0.0619825 0.073672 0.705508 1.1411 0.28279 -0.286782 -0.632317 0.427255 -0.252843 0.161027 -0.497275 -0.511449 -0.272781
0.620585 -0.802781 -0.218509 0.363736 0.328843 -0.653567 -0.800889 0.0242489 -0.456112 -0.457081 -0.548488 0.565657 0.101801 1.13952 0.0778692 -0.851173
-0.0800413 -0.11969 0.495451 -0.542088 0.0416047 0.290117 0.189674 -0.0812512 0.144937 -0.552497 0.155681 0.193799 -0.135038 -0.0663716 0.0724264 -0.541246
-0.321624 -0.457919 0.401101 -0.688444 -0.897931 0.402985 0.0924699 -0.238412 0.794496 -0.194432 0.00926968 0.0550956 0.163972 -0.206578 -0.0373538 0.395352
-0.882704 -1.1684 0.23094 -0.0735062 1.29588 0.38661 -0.989252 0.390881 0.549389 -0.804182 -1.1625 0.858777 0.577951 0.121692 -0.000492278 -0.0566125
0.461744 0.435272 -0.792982 0.165457 0.0373638 -0.189432 0.595685 1.12882 -0.260102 -0.128364 1.00217 -0.602984 0.126275 0.5 -0.39471 0.476428
0.421371 0.587409 -0.17279 0.122953 0.683983 0.281726 0.288076 -0.0143279 -0.0129571 -0.182528 0.05447 -0.00667151 0.549434 1.05883 -0.332413 -0.107096
0.0246214 0.393016 -0.540273 -0.57275 -0.569524 -0.538085 -0.673595 0.878657 0.6772 0.28855 -0.140905 -0.366484 -0.647666 -0.11767 -1.13484 0.282721
0.177201 -0.134333 -0.249405 1.58525 1.15031 -0.212837 0.759468 0.248519 0.198426 -0.394508 -0.502312 -0.18288 0.394318 -0.296411 -0.836509 -0.310959
-0.240545 -0.189141 -0.36493 0.640727 0.654894 0.0915248 -0.122179 -0.1087 -0.312842 0.61322 -0.284143 -0.776528 -0.56807 -0.523557 -0.0627747 -0.0995438
0.367963 0.125821 0.155725 -0.798089 0.247661 0.238672 -0.331825 0.282722 0.492601 -0.435663 -0.0503048 0.00116532 -0.000510454 -0.220477 0.454274 0.261413
0.158813 -0.560686 -0.485013 0.0431297 -0.073741 0.154453 -0.14516 0.455608 -0.683989 0.016175 0.706411 0.37283 -0.796641 -0.208775 -0.69838 -0.114346
0.940787 -0.359256 0.576277 0.186991 0.240651 0.101093 0.114789 -0.424504 1.14424 -0.316406 0.280503 -0.65686 -0.139206 0.152413 0.0172142 -0.0578533
-0.409396 -0.766608 0.108401 -0.010592 -0.0811188 0.554223 -0.437155 1.15243 0.0655704 0.527518 -0.104378 -0.242668 0.537526 -0.131083 0.356889 0.17119
0.515245 -0.0127458 0.0679513 0.777724 -0.372482 -0.000522978 -0.520033 0.323727 -0.116579 -0.112298 -0.273839 0.0797652 -0.444139 0.917224 -0.248464 0.134315
0.489858 -0.352221 0.144672 -0.836909 0.498994 -0.270267 0.291802 0.673652 -0.322343 0.0176682 0.369078 -0.147047 -0.0205483 -0.864145 -0.159747 -0.217246
-1.11016 -0.47819 0.373278 -0.0483755 -0.117613 0.0484058 0.572335 0.0738717 0.576367 -0.731198 0.368869 -0.363726 0.00514177 -0.802005 0.452081 0.121095
0.114043 0.233807 0.18203 0 -0.25976 0.0897819 0.994662 0.163105 0.231395 -0.622075 -0.123736 -0.469753 -0.0727486 -0.179303 0 0 0.148758 -0.64201 0.361518 0 0 -0.145286 -0.00669379 -0.0504755 -0.38321 -0.193703 0.0577883 0 -0.383471 -0.0770138 -0.503601 0.0850793
-0.128966 -0.48327 -0.0481125 -0.310681 -0.22632 -0.230714 0.0452696 -0.756719 0.197057 -0.514578 -0.109746 0.214755 -0.584762 0.793316 0.0891128 0.137568 0.0246475 -0.274606 -0.427836 -0.150222 0.585122 -0.451585 0.117762 0.0743536 0.0688214 -0.500112 -0.16766 -0.382029 -0.157637 -0.122882 0.360301 0.370176
-0.0997098 0.157803 0.0044275 -0.0393752 0.0107163 0.228942 -1.28691 -0.688504 -0.220662 -0.539494 -1.22913 -0.195303 -0.116847 -0.317198 0.451351 -0.859573 -0.041015 0.256747 -0.0672082 0.179839 0.774006 0.136811 0.0582993 0.53635 0.149179 0.779391 0.731372 0.0614296 -0.107838 0.0324148 0.145651 -0.0876878
0.221095 -0.224247
