-0.535363 2.60402 -0.578808 -1.70624 -1.28342 0.234781 -0.50841 0.311804 0.674453 -0.29614 -0.136638 -0.0321862 -1.30123 0.642567 -1.65513 0.603552
-2.11509 1.71056 0.692288 0.606618 1.06778 -0.627759 -3.52716 -0.643579 0.309545 -0.688214 0.602534 -0.00916161 1.15568 -0.959138 0.0149541 -2.67892
-0.564278 1.65015 1.3301 2.03438 -0.918511 -1.02013 0.708003 -0.388192 -0.710327 -1.80233 -0.390315 0.623804 1.51538 -1.97533 -0.480329 -0.704319
1.6903 0.483741 -0.801467 -1.25782 1.36012 0.498765 1.0777 0.700682 1.57495 -2.21021 -0.433243 0.383848 -2.20181 -1.06657 3.30437 0.791619
1.7562 -0.452059 -0.576689 1.94186 -0.71184 0.597132 -1.32127 0.815969 -0.352543 -0.120825 0.446829 -1.1232 4.02904 -1.6929 -0.622637 0.482148
-1.17188 1.46621 3.30341 -1.65301 1.77052 -3.33498 -0.493483 -0.377559 0.31784 -0.646163 -0.526543 2.57636 0.812861 -0.208144 3.04888 -0.57285
0.875868 1.0496 1.12025 -1.63929 1.57715 1.08997 2.71 -2.01984 -1.37076 -1.86949 2.33404 0.789519 -0.281347 1.43949 1.20969 0.852008
-1.02016 0.598684 -0.010108 1.7703 0.799559 1.54924 1.00084 3.08102 0.218062 1.54844 0.523355 -0.520381 -2.66764 -0.265396 -0.0211755 2.38565
-0.290405 -0.42727 1.22795 1.80167 -0.844939 -0.535639 -0.916336 1.46768 1.72472 -0.150179 -0.71612 -2.47924 -1.50685 0.568249 1.91844 -3.65134
-0.188499 -1.2643 -0.241485 1.28887 1.80566 -0.570457 1.26903 0.327941 -0.690584 -0.0674223 -0.758683 0.140195 -2.20451 -0.43427 -0.368291 1.49479
-0.624321 -1.6992 2.13695 3.47569 -0.147221 -3.31364 -1.55371 1.47136 2.61389 -1.76351 2.28988 1.32306 0.970305 -1.5421 -0.300626 -3.04889
0.50681 -1.4372 -1.13958 -1.25564 -0.661992 0.185266 -0.759659 -0.162935 -0.882051 0.624081 -0.126603 1.53917 0.783957 -1.35656 -2.85228 -1.6128
0.892614 -1.61774 -1.58714 1.30665 -0.599376 2.40788 1.97224 -0.388601 2.45513 -0.623493 0.23615 -1.56546 2.43778 -1.11443 -1.91878 -0.690484
-0.703634 -1.52214 -1.09309 0.151595 0.321953 1.5825 0.00265055 -0.540483 -3.17645 3.29957 3.25286 0.324637 -0.975573 0.994748 2.88579 -2.37118
-1.56987 -0.73627 -0.54702 -2.13435 0.910142 -1.28724 1.1986 0.497105 1.35754 1.43449 1.8318 1.6028 0.440571 0.621161 -1.66538 0.939384
0.574532 -0.32245 -0.139845 -4.26723 -0.166107 -1.24386 -1.41662 0.77039 2.21032 0.299627 1.49164 -0.558338 -0.480577 -0.550268 -2.8641 0.877523
3.1568 1.67488 -0.413906 0.281821 -0.284257 -0.622844 0.794292 -0.144045 -0.442759 0.427863 -2.24453 -0.130157 -1.28154 -0.718486 -0.0362414 1.9775
-2.1689 1.09142 1.22268 1.71651 0.202107 1.28818 -0.646355 0.20077 -0.662605 -1.00023 1.21066 0.128413 1.83679 0.237584 0.908245 -0.664999
3.03121 -1.83179 1.37064 -0.332105 0.833093 -1.70855 -2.01586 0.688569 -0.619502 1.26232 0.122913 1.02066 -0.840896 -0.186337 -0.1168 -2.19967
-2.38847 -2.17314 -0.0897928 0.211605 -0.251219 0.0392468 0.449687 -1.02554 0.774739 1.33036 -0.151808 -0.621929 -1.63696 1.15693 0.0329716 -2.13421
-1.17066 0.542914 -2.64511 -0.175734 0.480744 2.08857 -0.952154 -2.28195 1.50159 0.287993 0.540608 1.36247 -0.0383483 1.29028 1.59629 0.246895
-2.45238 0.360265 0.965248 0.627796 0.00978012 0.343855 -1.58032 -1.75925 1.89228 0.35815 0.529673 1.74016 0.165201 -2.48325 -0.10713 -0.20559
0.715614 -1.17488 0.723254 -0.425645 -1.88937 -2.55988 -0.168964 0.0257624 -0.806167 -1.00939 1.41842 -1.88684 -0.183769 0.895293 0.179711 0.197546
0.210438 1.37776 0.0617975 0.937377 2.48373 0.623162 -2.22188 -2.11207 -0.182152 1.08872 1.34332 0.70227 1.51677 0.124622 -0.100609 0.448146
0.86598 -3.96566 -0.606452 0.0335269 0.641821 1.79608 1.17134 2.2766 1.20017 -1.32545 1.24254 0.496079 0.995332 0.837559 -0.484646 -1.67641
-2.45935 1.93207 -1.09423 1.14034 0.629741 1.08787 -1.08002 -0.0469504 0.122525 -1.0805 0.790735 0.425304 0.458007 -0.665575 1.23595 1.04293
2.70084 -0.33604 0.421869 -0.534732 -0.04657 -0.531173 0.195583 -0.324081 2.98756 0.533908 0.408741 -1.39436 0.49448 -0.685749 0.990139 -1.35022
1.46378 1.70417 -2.2603 -1.9908 1.40756 0.0518427 0.75108 -1.70006 2.84776 -0.745392 2.84543 -1.34566 -2.04004 0.584392 -0.31981 -2.57453
0.0794989 1.07522 -1.01291 -0.403468 -0.437556 2.06034 -1.71927 2.91145 1.75436 0.0248696 0.641418 1.5315 -0.0326826 0.512615 4.01867 -2.84171
-0.229199 0.742665 0.826931 -2.8962 -0.695466 0.738868 2.53895 -2.38841 2.97795 0.0542754 0.325143 -0.761959 -0.0665565 0.0880002 1.02657 -2.17162
-0.722884 -1.11232 -3.55386 -1.89828 -0.27134 1.2036 -0.551485 0.732364 -3.28359 -1.9373 0.277273 0.846063 -1.12534 -0.452791 0.187973 2.09762
-0.463046 -0.524906 0.431721 -0.863028 1.63227 -0.865533 -2.24716 0.756724 -2.29213 1.01779 -0.0592258 -0.431634 -0.687729 -1.18604 1.41122 -2.94611
-0.389482 -0.692777 0.655129 -1.14752 0.201074 1.4008 -0.524302 -1.34043 -0.756571 2.44065 0.332526 1.33922 0.00711717 1.19469 1.65016 -1.89944 -2.09443 -0.0893954 0.231985 0.297013 1.65016 1.04476 0.530051 -4.42372 -0.563939 0.896535 -0.401506 1.16381 2.53863 -0.943857 -0.980874 2.58352
1.24942 -1.79769 0.402053 0.0486838 -1.4563 -2.09986 0.548288 -2.76725 -0.0292367 -0.709968 1.07827 0.403311 1.384 -1.72607 -1.97836 -1.28713 1.55473 0.204182 2.35315 -0.687827 0.531642 0.267705 -1.39668 -0.276662 -0.419924 -1.07199 -4.34701 2.6305 0.440808 3.29109 -1.02444 2.9804
-0.557114 1.30469 0.123184 1.80854 -0.956439 0.793524 0.831177 0.939961 0.46455 3.2556 0.981278 0.434958 -1.10471 -2.81532 0.815499 1.40077 -1.81085 0.346897 -1.46402 -0.470138 -1.3551 0.411769 -0.721938 1.03544 -1.559 0.297173 -1.16788 1.45763 0.248148 1.01621 0.675082 -0.0998278
-3.43117 -1.24561
