0.254935 -0.343098 -0.720043 -0.54278 -0.990085 0.245404 1.16363 -0.161543 0.839414 0.0478929 0.0891433 0.701807 0.405482 -0.236081 0.201339 0.814933
-0.378164 0.67426 1.45114 -0.11506 0.211869 0.399305 0.467796 1.13723 0.24311 1.32421 0.637247 -0.948498 0.371123 0.822088 -1.53923 0.343096
-0.182807 0.441125 -0.712274 -0.491257 -0.493014 0.171878 -0.0262069 0.863926 0.480204 0.674704 0.107496 0.639349 0.0678099 1.24401 0.276867 -0.100985
0.192399 1.41358 -1.46817 -1.61814 -1.01963 -0.000836754 -0.325443 0.751317 -0.427289 0.936088 0.103703 -0.667398 0.732603 -0.0830585 0.218433 0.898997
0.785182 -0.47218 -0.919319 0.584606 -0.0548471 1.21094 -0.531777 -1.16361 0.436222 -0.425293 0.302975 0.125286 -0.494475 -0.419452 -0.9635 -0.540515
-0.730505 -0.0220866 -0.369349 -0.644909 0.413528 -0.650168 0.486394 -0.101828 -0.80453 -0.106613 -0.166275 -0.0978125 0.511121 -1.18505 0.663694 0.0627668
0.114032 0.733907 0.758987 1.46593 -0.854766 -0.128509 -0.594568 0.185836 0.591135 -0.0914235 1.21934 1.29157 1.19767 0.477719 2.04348 0.0695128
-0.265983 -0.78013 0.805788 -0.612368 -0.412229 0.444793 -0.291965 -0.727295 1.10695 0.382074 -0.482806 -1.21665 -0.336957 -0.183505 1.20043 -0.395778
0.00769596 -0.386092 -0.55879 0.16218 -0.403924 0.189621 -0.774596 0.767158 0.617255 -0.876549 0.799525 -1.49085 -0.932815 0.698586 0.699314 0.90162
1.22008 0.896327 0.177166 0.659169 0.0573625 1.17743 0.0257681 0.816097 -0.785239 0.732367 1.0606 0.744086 1.27603 -0.10662 0.939053 0.131703
0.685175 -1.0178 0.213103 0.175139 -0.0115724 0.366206 1.37108 -0.784569 -0.423679 -0.976653 0.378311 -0.631528 1.57207 1.25168 -2.00143 0.527683
0.399311 -0.261476 0.328595 -0.341717 -0.27025 -0.400367 0.019442 -1.74778 -1.34974 -0.00420247 -0.256069 0.829303 -0.226464 -0.0721987 0.570455 0.609363
0.202867 -0.133808 0.230739 -0.179942 -0.512994 -0.429234 0.893138 0.618756 -1.32922 0.498201 0.933618 0.707719 -0.00794075 0.359592 0.751305 -0.0948445
-0.282835 0.630606 -0.543298 1.44417 1.09964 -0.237296 -0.277853 0.0430924 0.0384465 0.0634297 -0.00986789 -1.17931 0.743996 -1.16233 0.827831 1.02846
1.05577 -0.175925 0.518834 1.08142 0.404673 0.355546 0.375529 -0.311997 -0.257899 -0.428105 0.0273385 0.133788 0.0352134 0.0953629 0.505248 0.10691
-0.700656 -1.17491 0.456525 0.221583 0.334603 0.20969 -0.526656 -0.295827 0.680068 -0.583858 0.316398 -1.05065 1.00191 -0.224807 -0.621829 -0.143717
0.675346 0.915362 0.256431 0.523335 0.269857 0.00864995 -0.354874 -0.28828 -1.38939 0.920483 0.0633391 -1.23087 0.0929759 0.38022 -1.37145 -0.110195
-0.248595 1.24141 -2.1743 0.703989 -1.01549 -0.100463 -0.0433446 -0.440534 0.735278 0.396333 -0.458125 -0.852657 -0.749191 -0.468717 -0.636674 0.42461
0.397918 -0.112889 0.708254 0.730484 -0.574279 -0.557862 -0.160237 0.349063 -1.20327 0.619385 0.447383 0.69246 0.462262 0.72115 -0.60717 -0.75135
-0.270537 0.427026 1.19985 -2.16647 -0.628554 0.34288 -0.48846 1.66905 1.2674 0.517053 -0.160416 0.163992 -0.433805 -0.703765 0.558347 -0.828564
-1.55398 -0.133451 -0.394173 -0.63724 -0.0935221 -0.323424 0.688866 0.272214 -0.983837 -0.158944 -0.00565975 -0.332335 -1.25551 0.175466 -0.733926 -0.390961
-0.243466 -0.0697708 0.193392 -0.926347 0.448886 0.879911 -0.33113 0.152702 0.661695 -1.27513 0.426814 1.01509 -1.32758 1.30972 -0.0732829 0.144978
0.902696 0.365158 0.713327 -0.991779 0.342907 -0.0324943 -0.314463 -0.790918 -0.052772 -0.576556 0.259907 0.877096 0.150127 -0.646344 -0.131215 -0.0907833
-0.433339 -1.21134 1.53995 0.378991 -0.16908 0.163467 0.253218 -0.759079 0.222475 -0.333425 0.232163 -0.016888 0.889191 1.02936 0.306922 0.0296479
0.810323 0.759575 -0.374866 0.764337 1.0113 -0.598426 0.967502 -0.668363 0.46416 0.461939 0.301833 0.80294 0.613555 0.0568038 -0.768032 -0.157439
0.523272 0.102938 -0.14321 -0.184128 -0.569526 0.869117 -0.546237 -0.871258 0.128045 1.14113 -1.24982 0.279762 0.15517 -0.0517783 -0.364152 -1.14586
0.253967 0.325063 0.981943 -0.30188 -0.199162 0.409822 1.12585 -0.695048 0.849477 0.164567 0.239031 -0.69809 0.4879 -0.473908 -0.591091 -0.401024
0.176011 -0.430038 0.47356 0.658501 -0.515379 0.793643 0.821707 -0.492459 0.431457 0.172976 0.447332 -0.868564 -2.04055 -0.28174 0.744763 0.0242946
1.20431 0.112069 0.022071 0.407546 -0.560547 1.22419 -0.297773 -0.138369 -0.808695 0.596622 0.420036 -0.509573 0.101735 0.270801 0.995803 -0.440714
0.0619547 -0.981729 0.794485 0.0270179 -0.704997 0.0131322 -0.372718 -0.353787 -0.753867 0.0530523 0.516902 -0.319723 0.222266 0.710768 1.17765 -0.641676
0.700118 -1.09214 -1.32642 0.325898 0.757316 0.829053 -0.808343 -0.919284 -0.187546 -0.103518 0.468112 0.957458 1.23246 -1.01892 -1.02935 1.03558
0.89838 0.104894 1.77728 0.619532 -0.992698 -0.794442 -0.227966 -0.101233 0.397888 0.462205 -0.706409 -0.0444637 -0.173391 0.7567 0.647528 -0.535198
-0.640244 -0.343332 -0.508263 -0.204385 0.733478 -0.112739 -0.702976 -0.0548648 1.64446 0.374391 -0.45983 -0.202675 -0.979374 -0.280919 -0.362422 -0.275911 0.65025 -0.995511 -0.627167 1.94186 -0.135773 -0.326934 0.294567 0.132774 1.27827 -0.544436 0.306316 -0.236337 0.42821 -0.506584 -0.388807 1.49389
-0.657626 -0.0579451 -1.72988 -0.984199 0.41319 0.762588 0.62162 0.297324 0.096884 0.0316516 -0.339066 -0.976545 -0.231217 -0.052827 1.37455 -0.652856 -0.489457 -0.16528 -0.0441182 0.658235 -0.733691 0.105012 0.599059 0.802759 0.251096 -0.848618 0.147942 -0.172719 -0.0539731 0.907902 -0.658561 1.19465
0.016617 0.0875802 -0.552427 -0.138481 0.468694 -0.0759433 0.462552 0.860825 0.254227 0.245669 0.38094 0.207574 -0.790725 -1.05728 -0.770406 0.000582016 -0.0653789 0.456592 0.723296 -0.865407 0.159167 0.511811 1.35091 -0.147459 -0.252904 0.0870724 -0.373728 0.170083 0.419401 -0.33042 -0.606402 -0.348904
0.976797 0.286594
