-0.521404 -0.783256 0.336875 -0.0525664 0.00593654 0.043217 -0.121219 -0.185307 0.00847631 -0.0153581 -0.257974 0.194704 0.462519 -0.11628 -0.122834 -0.395541
-9.32578 -6.74042 6.8014 -16.3546 3.84358 2.79471 -1.70016 -0.0756577 0.046887 -0.215019 -0.456003 -0.173926 -0.201003 -0.14805 -0.136615 -0.200118
-0.208417 -1.31667 3.2943 18.8767 -3.43398 -2.50505 5.73462 0.175439 -0.455578 -0.353161 0.285068 0.406302 0.00442214 -0.263166 0.162079 0.214202
-0.848972 -2.27549 3.0252 -6.49872 4.19724 0.805053 7.10843 -0.00391196 0.5 -0.0497407 0.188026 -0.441902 0.200292 -0.2733 0.122603 -0.1633
1.95612 0.249341 0.903086 21.37 -5.0087 0.7577 5.62773 -0.17719 0.319447 -0.5 -0.0497013 0.212586 0.240278 -0.384363 -0.379402 0.0771078
-1.34451 -0.952969 1.15955 -0.261353 -0.600548 0.208516 -0.002798 0.259866 0.220331 0.205229 -0.382339 0.476905 0.379992 -0.126593 0.0436595 -0.218551
-1.10005 -0.759371 0.447651 -1.21864 -0.353915 0.989349 -0.109161 -0.143205 0.209379 0.482175 0.440683 0.16625 -0.0437438 -0.436433 0.45208 -0.013644
3.22701 0.981332 -0.248671 21.8351 -4.88072 0.918226 5.83711 0.219702 0.308783 0.0531521 0.0256602 -0.428096 0.353967 -0.5 0.5 0.119431
-0.631526 0.0110148 0.383439 -0.777662 -0.153446 -0.0378991 -0.0153632 0.171665 0.315692 0.163195 0.166205 0.20709 -0.340621 0.0652422 -0.104345 -0.151583
-1.0386 -0.430007 0.741557 0.0156042 -0.14833 -0.304367 -0.0727336 -0.0447244 -0.145527 -0.189488 -0.167618 -0.0634519 -0.268655 0.173156 0.5 -0.399578
-1.39668 -0.375586 0.859308 0.47109 1.93086 1.53929 -0.070916 -0.204946 0.0299583 0.0694525 0.148792 0.0661025 0.356403 0.270376 0.441099 0.0163442
2.3568 0.375421 0.730053 21.9278 -5.28562 0.312612 5.99825 0.18003 -0.26821 0.207117 -0.493055 -0.0311286 0.0737483 -0.189342 -0.0490025 0.158705
-1.37324 -1.2022 1.42173 -1.55188 -0.209426 2.48463 -0.157389 0.135761 -0.290931 0.176082 0.5 0.5 -0.084502 0.451071 -0.111735 0.382578
1.50072 0.183929 0.859491 18.8915 -4.99275 -3.36419 5.41092 -0.246507 0.190651 -0.236134 -0.363473 0.251761 0.469201 0.0429909 0.0484523 0.0543401
1.52997 0.0168211 1.59599 21.2728 -5.67568 0.412184 6.31023 -0.156794 -0.144295 0.0948365 0.134581 -0.388255 -0.00733865 -0.209366 -0.00307499 0.5
-0.731254 -0.612462 0.283461 -0.926435 -0.537179 0.279845 -0.0285038 0.174249 -0.0806727 0.110518 -9.02604e-05 -0.0623351 0.427635 -0.0554505 0.023587 0.00812126
1.49737 -0.43599 1.27436 6.8406 -0.749328 4.71982 8.16722 -0.14264 -0.268943 0.0907257 0.0907821 0.0493484 -0.195246 0.33068 -0.00894986 -0.0139208
2.20634 -0.0283734 0.742467 13.9169 -3.75808 -0.744487 6.6602 0.147081 0.167798 -0.328413 -0.31212 0.140482 0.5 -0.0661852 0.0602079 -0.118181
1.1859 -0.244978 1.36545 9.01472 -0.866302 4.53538 8.23977 0.262256 -0.388757 -0.284276 0.5 0.191865 0.30181 0.0852233 -0.5 0.116289
0.712647 0.0545587 1.14651 18.4934 -2.21259 -2.6071 5.80346 -0.1655 0.0788542 0.368763 -0.335682 0.258971 0.442745 0.485187 -0.115581 -0.0949794
-0.0811855 -0.189893 0.250891 -0.21945 -0.480158 -0.0325086 0.194688 0.082645 -0.0962931 0.371235 0.0515229 0.403905 -0.333572 0.0145466 -0.095639 0.284268
1.86684 -0.888284 1.54968 20.1047 -5.36973 0.334499 6.19819 0.177283 0.137361 0.375911 0.0693849 0.115218 -0.095528 0.0684982 0.319151 0.0345499
-1.04035 -1.12411 0.998931 -0.714918 0.442671 1.08483 -0.299286 -0.45877 -0.211384 0.0272076 -0.174409 0.0184867 -0.161818 0.379163 -0.0546335 -0.363066
-1.03255 -0.816995 0.857058 -1.67617 -0.451777 2.49777 0.0958662 -0.126548 -0.253295 -0.0171329 -0.179543 0.322142 0.0349582 -0.179782 -0.154238 0.265137
-0.322441 -0.119189 0.299393 -0.403567 -0.196963 -0.299191 -0.177762 0.0188134 -0.352605 0.012131 -0.268271 -0.440357 -0.346081 -0.0219535 0.00325985 0.147918
-0.898298 -0.567447 0.358655 -1.04965 -0.600944 0.207676 0.182741 0.0845266 0.321828 0.136499 0.160666 0.201005 0.131106 -0.455779 -0.396364 -0.5
-1.11256 -0.707481 0.332747 -1.19218 -0.886149 0.539361 -0.304584 0.24639 0.138898 0.119244 0.10924 -0.5 0.19829 -0.254259 0.0817911 0.5
-1.06999 -0.925125 1.5439 -0.694093 -0.689907 2.37577 0.01978 0.13791 0.113293 -0.294268 0.0348456 0.0599175 -0.221132 -0.0611551 0.5 0.00754153
2.15067 0.835083 0.656213 21.2788 -5.21282 0.866183 5.97913 0.252733 -0.298877 0.371907 0.214749 0.169304 -0.116122 0.0718664 -0.1463 0.0419041
-1.37752 -1.54195 1.56436 -1.40764 0.774986 2.65313 -0.220752 -0.0856557 -0.337467 -0.153242 -0.382139 0.12475 0.0729527 0.00381047 0.231362 0.0839854
1.4184 -0.365965 1.49231 20.5604 -5.1979 0.511554 6.0112 0.384984 0.330283 0.463738 -0.270686 0.299213 -0.0600326 -0.108176 -0.105069 -0.200337
-0.781995 -0.678714 0.99568 -1.02282 -0.393537 0.620105 -0.25896 0.0447948 0.188308 0.0305733 -0.265082 -0.170031 0.411114 0.466991 0.0350946 0.250823
-0.764876 -0.7048 1.25732 -1.728 -0.363124 2.80851 -0.126005 0.148591 -0.358305 -0.17817 -0.132889 -0.332325 -0.0706596 -0.449549 -0.0846804 0.136891
-1.31922 -1.66258 1.32377 -1.0713 -0.149764 2.49475 -0.098592 0.240303 0.323516 -0.338761 0.0702687 0.457934 0.352671 -0.0257636 -0.0191326 0.5
-6.03947 -4.712 5.04974 -13.2323 5.32699 -2.64916 -1.22753 -0.0496689 0.211915 -0.193357 0.00933862 -0.260791 0.164469 0.38411 -0.221314 -0.319854
-1.76157 -1.68481 1.59506 -2.02501 -0.223816 2.24269 -0.32166 0.377216 -0.0567484 0.265549 -0.0161066 0.137113 0.146432 -0.247878 0.0247179 0.0263695
-1.25809 -1.77937 1.33709 -0.485756 -0.594121 1.73889 -0.264959 -0.211997 0.0120954 -0.264434 0.152508 -0.166811 0.118818 -0.327801 0.00123152 -0.5
0.424576 -1.29793 3.12864 19.2527 -4.1766 -1.37347 6.35545 0.1794 -0.0394623 0.103855 -0.0288767 0.290761 0.109506 0.00716212 -0.0739135 -0.320439
-1.67063 -1.28703 1.56071 -1.29096 0.179104 2.01771 -0.194063 -0.253048 -0.424769 0.194721 -0.0608867 0.167539 0.218883 -0.260174 0.364739 0.405235
-1.48586 -4.81907 5.9095 18.1743 -3.45118 0.929848 4.82431 0.00631942 0.00284222 0.0609211 -0.0567023 -0.151672 0.00725667 -0.0597094 0.178122 0.475883
1.96015 0.198768 1.02499 21.1399 -4.5005 0.852429 5.66119 0.277369 -0.163666 0.188661 0.277165 -0.0555172 -0.125345 -0.0785485 -0.122519 0.175868
1.87911 0.235743 1.04878 21.0448 -4.54974 0.445276 5.97485 0.182701 0.00848013 -0.132872 0.369024 -0.173571 -0.319493 -0.276536 -0.347853 -0.395001
-6.39994 -4.86772 4.6895 -17.8623 7.28768 1.69903 -0.450915 -0.116284 0.197819 -0.5 0.399768 -0.327867 -0.302801 -0.0719426 0.0352319 -0.152731
-1.24366 -1.54123 0.547267 -1.06295 0.300612 2.50026 -0.178571 0.382483 -0.0699066 -0.0981042 -0.189498 -0.426737 0.458218 -0.127518 0.000356452 -0.204638
-0.665115 0.195243 0.240878 0.0762159 -0.049389 -0.287545 -0.115895 -0.0825361 -0.331175 0.325186 0.0956327 -0.451124 -0.0970456 -0.230199 -0.5 0.0273525
-0.99503 -0.114499 0.471612 0.0504525 -0.810169 0.00371968 -0.121951 -0.373334 0.258849 0.168832 0.300888 -0.146101 -0.0501123 -0.0457876 -0.187879 0.132888
1.68672 -0.242001 1.29906 21.2247 -5.1738 0.382746 5.68846 0.264718 -0.117837 0.265609 -0.0386105 0.290295 -0.368064 -0.150332 -0.5 -0.5
-3.24455 -2.2313 2.45297 -6.4004 2.79023 -2.49831 -2.05603 0.311865 -0.00951302 0.467146 0.0446289 0.19869 -0.215273 0.278399 -0.371983 0.187534
2.37002 0.71115 0.185282 21.736 -4.52216 1.03305 5.61569 0.447618 0.0773688 0.35073 0.101353 -0.105802 0.199592 -0.208709 0.229042 -0.466988
1.3826 -0.700139 1.38345 21.0659 -5.28388 0.326359 6.04073 0.0593596 0.190809 0.15512 0.496377 -0.292683 -0.150187 0.0353177 0.0838005 0.352635
-1.2196 -1.40375 1.30621 -1.94418 -0.396718 2.24022 -0.560886 -0.086699 0.0687953 -0.0377722 -0.0710341 0.0838135 -0.301348 0.243986 0.16538 -0.00317784
-1.14934 -1.19915 1.52841 -1.75494 -0.966862 2.0421 -0.113758 -0.468103 0.231501 0.253473 0.320959 0.168503 0.0994549 0.11586 0.22216 -0.136884
1.72291 -0.872451 1.48795 20.8002 -4.90261 0.00756236 5.68628 -0.0048783 -0.0177094 -0.0238553 -0.250079 0.270094 0.0763671 -0.109696 0.212994 0.240292
1.66823 -0.365839 1.54025 19.9598 -4.82338 0.597781 6.26985 -0.231633 -0.15048 -0.041448 -0.102677 0.147746 0.0455513 0.0082137 -0.5 0.196372
0.0164486 -0.335437 0.00925603 -0.229327 0.0576888 -0.234832 0.0667707 -0.208701 -0.164357 0.162612 -0.270117 0.332322 -0.0617855 0.5 0.129469 0.110166
-1.60609 -4.13598 6.42627 18.1663 -3.0116 0.841369 4.91052 0.206093 0.334431 0.147164 -0.0799303 0.309814 -0.0594816 0.0289651 0.0434045 -0.341788
-0.934612 -1.0282 1.01458 -1.61733 -0.524917 1.56719 -0.0510108 0.385933 0.0741205 0.143805 0.233693 0.0403129 0.279848 0.113467 -0.344084 0.0882108
1.92757 0.0101138 1.3945 21.4252 -5.02482 0.455313 5.95435 -0.149098 0.0786965 0.093331 -0.208341 -0.313257 0.11474 0.182163 -0.151895 -0.0107713
-9.36137 -5.86955 5.28112 -17.5067 4.56139 1.53409 -0.824562 -0.0479547 -0.209415 -0.286948 0.0610008 0.235451 0.0670746 0.0720543 -0.338891 0.100168
-0.725654 -0.575114 1.05509 -2.21161 0.730511 -0.377273 -2.01765 -0.27177 0.0363606 0.199328 0.254906 -0.200723 -0.0177393 -0.375637 -0.00298461 0.0994186
-0.287773 -0.144188 -0.369691 -0.211846 0.0166811 0.0096583 -0.122799 0.160072 -0.192709 -0.286051 -0.063754 -0.223366 0.346591 -0.0361193 -0.0814639 -0.0189872
-7.54398 -5.84144 5.05504 -17.6241 5.54704 4.7802 -1.4257 -0.0821938 0.0542295 -0.150979 -0.0758341 -0.156464 0.169299 0.241134 0.153901 0.249552
-0.83206 -0.3345 1.90118 16.2078 -3.16581 1.77686 3.63387 -0.100396 0.309749 0.400048 -0.0197062 -0.065044 -0.04475 -0.0358598 -0.272167 0.245141
-0.292231 0.277463 0.0567559 -0.508395 -0.214396 -0.0873389 0.0210549 0.217293 0.23329 0.125619 0.290459 -0.0613885 0.201977 -0.168624 0.151922 -0.228338
-1.00824 -0.868852 0.632682 -0.686368 0.0499903 2.60995 0.102225 0.159635 0.200392 -0.410448 -0.0113224 0.0940298 0.472739 0.5 -0.330933 -0.281343
-1.16204 -0.954374 0.866733 -1.86124 -0.196404 1.05988 0.268339 -0.146228 -0.0282015 0.241217 0.341111 -0.154033 0.5 -0.0851138 -0.214462 -0.0856264
2.06224 0.321184 0.360039 21.3353 -4.33609 0.605576 5.6086 0.478229 -0.5 -0.0826787 0.349665 -0.157292 0.256761 0.25176 0.491552 0.0361678
-0.684746 0.486385 0.0118011 -0.269335 0.0851734 0.149835 -0.318773 -0.151108 0.266733 -0.284274 -0.230486 0.214262 0.277754 -0.431197 0.190634 -0.0941148
2.66044 0.569754 0.503228 21.3182 -4.63008 1.02868 6.16903 -0.0161642 -0.230189 -0.173756 -0.00382695 -0.200322 -0.31232 0.0231769 0.0489915 -0.0553898
1.09774 -0.114605 1.14111 17.8744 -4.92853 -0.570078 6.15386 0.0150654 0.106811 0.0236677 0.242916 -0.5 0.248236 -0.163435 0.0186399 -0.200605
-1.37972 -1.20241 1.47713 -1.31359 -0.0207301 2.30705 -0.173475 0.275761 -0.110715 0.000114029 0.185726 -0.156288 0.0107868 -0.451508 0.5 0.307221
-1.50606 -0.762726 0.644515 -0.502843 0.0139696 0.673394 -0.268596 -0.5 0.225336 0.0102941 0.186109 -0.00792287 -0.087622 -0.0345069 -0.0359812 -0.275902
2.05866 0.42595 1.08285 21.1927 -5.01784 0.252061 6.01496 0.118769 -0.296634 -0.5 -0.0903558 0.0165611 0.233113 -0.248942 0.125118 -0.0385086
-0.238932 -0.274691 0.361842 -0.263716 0.233932 -0.122737 0.062028 -0.377676 0.120216 0.108887 0.0131168 0.296168 0.00469742 -0.127985 0.285614 -0.0120289
2.25341 0.461808 1.23536 21.1904 -4.73083 0.19336 5.84322 -0.158271 0.280103 -0.0227877 -0.265072 -0.0294567 0.00650727 0.282352 0.287627 -0.412378
-1.29205 -1.25273 1.4133 -1.55212 -0.718049 2.04251 -0.100008 -0.022137 -0.0278039 0.129126 0.0759697 -0.0360192 -0.117892 -0.305408 0.491732 -0.166432
2.52908 1.18903 0.537659 20.9848 -4.48882 0.67372 6.00153 -0.0828696 -0.145277 0.0723209 0.180371 0.160309 0.320795 0.318494 0.244993 0.456704
1.32897 -0.408411 1.48498 20.9129 -5.35912 0.55696 5.87676 0.184266 0.0973314 0.0179379 0.0777974 0.4354 -0.0178787 -0.0324618 0.15669 0.0430002
-1.31579 -0.599247 0.278596 -0.729606 -0.527374 1.90241 -0.239468 -0.350246 -0.0743434 0.119589 0.373542 -0.216719 0.128762 0.291116 0.269507 -0.318204
-1.32195 -0.661312 0.405766 -0.594171 -0.780246 1.74993 0.337772 0.0749456 0.422415 0.293066 0.172467 -0.0471647 -0.353696 -0.430798 -0.0266605 -0.282806
-1.04054 -0.737928 0.232972 -0.603438 -0.117067 0.215757 -0.252654 -0.390675 0.162243 0.320237 0.0683554 0.212308 0.5 0.185657 0.147756 0.0587084
1.40383 -0.486697 1.45091 21.2119 -5.51973 0.460961 5.70344 0.119363 -0.189262 0.123209 0.110133 0.476899 -0.0422095 -0.056259 0.226273 -0.0840193
-0.252764 -1.32427 2.73058 17.6982 -4.01 3.4207 3.927 -0.0830766 0.00653353 0.16847 -0.206322 0.0694478 0.298081 -0.0227173 0.225271 0.0859
1.31355 -0.382274 1.70813 18.6541 -4.95967 0.293729 6.29558 -0.00314654 0.0915198 0.25312 -0.383008 0.214072 -0.192246 0.0563109 0.416076 0.326936
-6.661 -4.63495 4.89819 -14.9416 5.2462 4.84625 -0.67227 -0.0921113 -0.0721385 0.194732 -0.132875 0.130562 0.117705 0.161351 0.278909 0.170047
1.78869 -0.408699 2.03286 18.4899 -4.9844 -0.796208 6.35258 0.140878 -0.0163371 0.354907 -0.16159 0.180633 0.190042 -0.0801757 0.0357954 -0.00994427
1.73188 0.0875946 0.480516 12.3072 -2.83253 1.99402 7.26993 -0.5 -0.214839 -0.390574 -0.175748 0.0428367 -0.106948 -0.399029 -0.488651 -0.343259
-1.35373 -1.06653 1.39724 -1.74767 -0.458263 2.6855 -0.000778224 -0.0619631 -0.153331 -0.499463 0.296062 0.5 0.106843 0.395287 0.269938 0.0123623
-1.76494 -1.16422 1.61929 -1.6822 0.258683 -0.264889 -1.18434 -0.0276022 -0.0839026 0.1998 0.5 -0.0501399 0.0667818 0.200149 0.121555 0.379314
-1.49528 -1.18195 0.871127 -0.965484 0.00849975 2.42895 -0.507264 0.28683 -0.132531 -0.0177964 0.192042 0.0309483 0.10393 -0.402918 -0.241666 -0.176535
1.55037 -0.423525 1.61665 21.1569 -4.8833 0.202105 5.54986 -0.124673 0.360698 0.363266 0.167362 0.177119 0.147352 0.0271042 0.332269 -0.236266
-0.137906 0.00677275 -0.0266171 -0.451825 -0.0723386 -0.137133 -0.166475 -0.0392885 0.103444 0.305698 0.0583522 -0.18696 0.266654 -0.188785 0.162863 0.271185
-7.69222 -5.15098 5.38005 -17.4143 5.63434 0.476056 -0.394455 0.256731 -0.115638 -0.205187 -0.0179481 -0.291299 0.0497195 0.154051 -0.212664 -0.0283615
-0.86574 -0.438991 0.0954723 -0.53919 0.476073 2.74418 -0.17536 -0.273458 -0.102528 0.228894 -0.347548 0.269603 0.365262 0.166366 -0.068117 -0.00257783
-0.804316 -0.711228 0.340804 -0.343705 -0.0637197 0.134039 0.0852672 -0.137187 -0.304192 0.228307 -0.369262 0.108322 -0.140329 0.0564903 -0.198293 0.207594
-0.745543 -0.52854 0.43763 -1.92759 -0.784719 0.477802 -0.0578448 -0.207498 -0.0769544 0.470528 -0.108438 -0.5 -0.0280764 0.11432 0.124859 -0.0408718
1.48429 0.517663 1.45341 19.1239 -5.04957 -0.461151 5.85859 -0.412126 0.00904419 -0.0281536 -0.243956 0.208056 -0.148622 0.373902 -0.112298 0.0367317
2.23585 -0.0699857 0.443498 21.1489 -4.87021 0.583034 5.95751 0.0465206 0.146408 -0.161162 0.245859 -0.0277815 -0.0393249 0.5 -0.414238 0.0322664
1.18755 -0.301472 1.21133 20.8872 -5.9307 0.21769 6.42888 0.119982 0.0221861 0.101774 -0.141111 0.161865 -0.140447 -0.466667 0.109939 -0.209565
-0.959309 -0.788205 0.829811 -0.750649 -0.277497 -0.0535279 -0.0415737 -0.114932 -0.145105 0.309403 -0.0473323 0.376731 0.5 0.110674 0.382846 0.257542
-0.175869 -0.5 -0.0358167 -0.5 -0.11047 -0.26682 -0.37757 0.0825427 -0.186515 0.123377 -0.0110184 -0.161492 -0.0345999 -0.335257 0.124945 0.250845
-1.1729 -1.20164 1.21076 -3.08332 1.21769 -1.39041 -2.1032 0.120632 -0.218992 0.112001 0.294193 -0.250701 -0.429678 -0.178734 -0.225451 -0.0741941
1.81488 -0.0298718 1.94667 21.2281 -5.45711 0.442131 5.76015 0.403599 -0.049457 -0.0153713 0.164694 0.0523309 0.00269336 0.332472 0.117069 0.207255
-0.877298 -0.528851 1.32343 -1.55691 -0.39284 2.64505 -0.536257 0.396974 -0.0265737 -0.23088 -0.0612122 0.264228 0.240441 -0.026392 0.167107 -0.299997
-1.21644 -3.52995 5.54156 19.3985 -4.59885 0.425145 5.47306 -0.183788 -0.334533 0.498423 -0.211374 -0.481139 0.47012 0.0513125 -0.253114 0.0166208
0.728029 -1.22049 2.11659 19.6283 -5.06135 -1.11548 6.2417 -0.498276 0.388851 -0.157507 0.00568803 -0.432013 0.301257 -0.070053 0.5 0.0444986
-6.71432 -4.50468 4.77148 -18.1256 7.48203 1.80998 0.107726 0.263824 -0.0943972 -0.358227 0.350694 -0.322586 0.0962827 0.276098 0.104388 -0.359098
2.00189 -0.842562 1.75919 20.6147 -5.09878 -0.324139 6.3579 -0.017186 -0.0927211 0.0185866 -0.359567 0.0494177 0.0930483 -0.0179519 0.283748 -0.232554
-1.74696 -0.881787 0.863816 -0.569872 -0.0961762 0.227829 -0.281918 -0.138306 -0.32968 0.150971 -0.0935958 -0.210695 -0.1741 -0.181505 -0.16023 0.196736
1.18676 -0.180149 1.25241 14.541 -4.41846 -4.29445 7.54798 -0.0978672 -0.343443 0.393856 -0.069944 -0.5 0.14488 -0.193864 -0.5 0.468993
1.93352 -0.446381 1.08879 21.1766 -5.42389 1.04838 5.73616 0.175914 0.105131 -0.238181 -0.103502 0.15599 -0.0288481 -0.00830063 -0.0478187 0.0553585
1.70369 -0.394359 1.4494 21.2245 -4.6452 0.629168 6.29312 -0.0789834 -0.110764 0.0487816 0.0861821 0.196019 0.036121 0.241403 0.0629536 0.435119
2.03289 -0.369696 1.48527 21.4538 -4.92047 0.466021 5.74151 0.221185 0.157849 0.0837126 0.285481 -0.026368 -0.110239 0.317204 0.11757 -0.155483
2.56932 2.11341 -2.62505 8.08274 -8.62295 -0.207596 3.6757 -0.219147 -0.425881 -0.0531869 0.0221828 -0.0566501 0.264566 -0.0615448 -0.285801 0.429285
-1.10216 -1.12089 0.596813 -0.769782 -0.550851 2.25423 -0.065348 -0.293239 -0.311863 0.0407097 0.0730581 0.242349 0.220423 0.137769 0.287405 0.461114
1.68276 0.122075 0.702156 22.4672 -5.0233 -2.69402 6.15851 -0.242663 -0.0758364 -0.0710463 0.0787394 -0.264356 -0.33441 -0.400977 -0.129839 -0.082326
-1.17688 -0.695932 1.06711 -1.70992 -0.564474 2.28781 -0.291416 -0.122304 0.348414 -0.0188894 -0.0022676 -0.253635 0.303017 -0.0215542 -0.00807617 0.0883601
-1.2906 -1.65307 2.00949 -2.4061 -0.285043 2.37364 0.278284 -0.0334715 -0.143071 0.331841 0.5 0.311866 -0.286038 -0.175169 0.0765463 -0.329358
-7.85432 -6.01334 6.04329 -7.70787 2.46145 -0.0497073 -2.68687 -0.24587 -0.240749 -0.0929349 0.11817 -0.0683486 -0.167995 0.0180865 -0.361743 0.203954
2.69758 0.463124 0.429225 21.5564 -4.80565 0.573646 5.59212 -0.110107 0.0310878 -0.14344 0.163643 -0.5 0.106317 -0.2346 -0.147052 0.272725
1.53305 0.16998 0.808774 21.0257 -4.78196 0.584113 5.8856 -0.0607936 -0.271109 0.226312 0.0559168 -0.43314 -0.296422 -0.398543 -0.0911299 0.0604062
1.67944 -0.460425 1.27389 19.1838 -5.74524 -0.552441 6.52357 0.114724 0.0176882 0.348589 0.263395 -0.376372 0.390547 -0.308057 -0.0382982 -0.157495
-1.27751 -1.06636 1.30475 -3.22026 1.19741 -1.57303 -2.17643 0.12013 -0.00523909 0.117881 0.137925 -0.034034 0.0117877 0.139937 -0.25932 0.305404
-2.94358 -2.15456 2.27101 -5.79671 2.20724 -2.46179 -2.25965 -0.0311674 -0.146201 0.195464 0.062361 0.323479 0.35947 -0.0502584 -0.459809 -0.184155
-1.23184 -0.422426 0.612669 -0.986178 -0.370532 0.313943 0.242332 -0.0247711 0.146682 0.0329887 0.233069 0.318993 0.0106933 -0.169096 0.0298593 0.117164
-1.62341 -0.733614 0.757881 -1.86646 -0.648038 1.53467 0.172524 0.0467802 0.127231 0.473088 -0.423743 0.309793 0.362305 0.0764237 -0.00217894 0.353744
1.44603 -0.491011 1.47619 19.929 -5.24736 0.160148 6.19549 0.133363 -0.5 0.160543 0.30875 -0.5 0.144279 -0.279717 0.128572 0.5
-1.02914 -1.12831 1.51421 -1.66053 -0.553481 2.6461 -0.365171 0.0664491 -0.369342 0.21983 0.259867 -0.0576342 -0.336628 0.234128 0.350882 -0.0108906
-0.0343811 6.64763 19.0754 22.895 22.9037 -0.210453 -0.978586 23.6751 -0.0159563 -0.0258611 -1.10563 23.1944 -2.48703 18.4843 22.9756 -0.27117 18.901 18.8037 19.1663 18.9032 -0.112097 22.5222 -1.07683 -2.5524 0.0282024 -0.308118 -0.527741 -2.40649 23.3996 -2.64566 22.3795 -0.631073 -2.83137 -2.48227 3.32016 -2.23074 -1.68281 19.1808 -2.01414 17.5813 23.0658 22.7244 4.85158 -2.48007 -0.0686179 -0.0643296 22.742 0.742193 23.4647 22.7435 -2.2315 -2.05139 22.7254 22.1149 -0.0539377 17.5866 -1.56134 22.7308 6.51308 0.121331 -0.0133366 5.91411 18.6169 -0.154923 -2.65655 -1.2045 22.9663 -0.13704 23.6194 18.9683 -2.31217 -0.662591 22.8282 -0.0343306 22.8738 -2.04248 23.4046 22.6126 -1.89019 -1.90435 -0.202724 22.8284 18.7229 21.366 3.85163 19.1649 18.7372 -2.69359 0.152384 -2.41573 22.6556 0.00495281 5.50712 -2.73448 -0.129458 -0.472017 20.4475 23.0475 22.1877 0.00361993 0 0.269921 22.8759 -2.67709 18.829 19.1475 4.8295 22.3818 -0.216926 22.5519 23.1822 22.7082 22.7476 11.4673 -2.2408 18.6303 -2.29902 -2.54213 3.29885 23.0438 22.5242 20.6778 0.289151 0.675411 -0.457384 -1.61499 22.4313 -2.65899
0.466014 -16.9654 75.0315 34.9989 114.976 0.780162 0.954958 126.071 0.26598 0.455921 1.20474 119.429 3.08718 76.8676 112.929 0.52657 53.6812 65.8573 56.781 75.5095 -0.00314911 107.218 1.05649 2.95002 -0.0925387 0.695009 0.952617 3.18823 119.152 2.42342 108.619 0.79837 3.2017 3.20716 -11.4883 3.93686 1.5937 78.4177 2.31426 68.1617 114.616 113.314 -11.5825 2.50585 0.181808 0.519075 111.373 -7.70593 121.98 110.106 2.43227 2.63857 108.402 105.574 -0.673819 67.9367 1.67969 113.728 -17.8541 -2.49811 -0.114165 -15.0311 62.0409 0.0896607 2.55074 1.50106 116.593 0.199218 121.551 73.9218 2.80991 0.872787 114.594 0.168163 114.577 2.37706 119.121 109.033 1.63543 1.53543 0.579427 110.296 68.8059 94.6921 -9.82176 77.8161 62.9172 3.13913 -1.50726 1.88 109.648 0.0211774 -13.9292 2.35527 0.573461 1.05842 90.6908 115.819 109.232 0.823931 0.0309454 -4.66936 111.033 2.89752 78.2799 79.9829 -11.4213 107.322 0.922268 83.3706 114.246 112.372 112.804 40.5039 2.26879 91.9663 2.58503 2.74798 -8.48473 118.666 112.376 92.9545 -4.90108 -7.25266 0.690127 1.94637 105.596 3.16289
0.400483 -20.5241 69.3805 33.6393 115.929 0.693362 0.685274 130.749 0.304463 0.676192 2.19086 122.93 0.346299 81.0786 114.559 0.304936 51.0311 67.2636 53.6486 72.2481 0.175321 108.593 1.01263 0.225223 -0.0433061 0.516609 0.636688 1.20117 121.567 2.94573 108.446 0.529565 1.85971 1.61937 -8.4894 1.68433 -3.57508 73.5308 -0.191245 54.6212 114.057 113.369 -12.5756 0.81437 0.238234 0.494252 112.072 -6.07474 123.147 109.5 0.908796 1.51487 108.193 104.692 -0.5042 53.868 0.946088 114.235 -16.0406 -2.73322 -0.14354 -12.1299 67.1908 -0.0739681 0.348947 1.13335 116.924 0.116999 123.019 74.699 1.45282 0.51907 116.744 0.0583331 116.179 0.518936 121.954 108.553 1.0275 0.858395 0.494217 110.796 72.5845 91.4126 -1.12127 77.6527 63.7745 2.77397 -1.3666 2.4739 108.994 0.0872266 -13.624 1.01623 0.334368 0.713085 86.2666 117.521 109.718 0.51057 -0.117277 -4.26401 112.221 2.12943 63.5449 76.863 -12.0513 107.552 0.87602 86.9012 114.044 110.934 112.734 50.5971 -1.00795 95.6345 0.314491 3.7195 -4.96904 121.476 112.256 90.9367 -4.30213 -6.52826 0.511882 1.16617 106.104 2.10965
0.388192 -7.29243 80.788 37.9605 112.166 1.05855 1.53023 114.307 0.678394 -0.066892 1.37261 117.866 3.31236 81.8562 119.055 1.00098 47.8148 58.9562 53.0568 70.7377 -0.112487 110.935 1.49058 3.06222 -0.175815 1.17112 1.27488 2.50605 114.731 3.00944 110.031 1.32264 3.48181 2.94696 -5.95588 3.6122 1.70876 83.6416 3.25859 80.4871 109.551 108.305 -12.6304 2.95992 0.00498423 0.366626 113.913 -6.47524 111.872 115.301 3.48442 3.29391 112.531 104.097 0.0224957 80.6123 2.04333 113.635 -4.10071 -2.25181 -0.164868 -6.50292 59.147 0.081996 2.88758 1.65637 107.638 0.0102787 113.138 77.9346 2.80746 1.20595 112.137 -0.0333766 110.482 3.19874 108.806 113.477 1.65098 1.74296 0.844559 117.063 69.2341 96.8266 -2.7799 81.2533 53.278 3.23898 -2.46711 2.2958 112.381 0.0571044 -4.74206 2.56508 0.59245 1.6709 89.6665 111.879 115.453 0.914417 0.0809447 -3.64902 116.913 2.84728 88.5306 86.0157 -13.5838 111.681 1.15188 83.3911 117.573 111.699 113.865 31.3112 2.28124 94.4175 2.79635 3.5417 -7.5757 111.091 107.933 98.8598 -3.52011 -6.39747 1.19716 2.07081 108.175 3.5923
0.424171 -15.0647 87.4853 63.2487 112.024 0.965462 1.16166 111.763 0.50079 0.601486 0.927687 115.027 3.40422 69.1896 115.879 0.601407 50.2139 56.4781 56.1203 80.8855 0.0300578 110.48 0.891594 2.77967 -0.209954 0.602605 0.88222 2.77783 112.744 2.5127 112.277 0.79151 2.22351 3.09119 -10.0448 3.23541 1.0982 88.8392 3.0625 88.1074 114.415 112.098 -8.81338 2.29431 0.227649 0.447441 113.203 -6.79246 115.177 115.958 2.79172 2.36058 114.403 108.635 -0.293483 88.7272 1.56275 114.169 -12.4696 -1.6628 0.0459921 -8.38188 58.9613 0.0537087 2.3165 1.57071 112.032 0.389827 115.956 72.0753 2.98471 0.829616 111.429 -0.0219402 112.029 2.48007 110.883 113.108 1.69418 1.426 0.567663 114.749 69.631 97.2624 -2.44498 78.2619 53.0779 2.83903 -1.565 2.02304 114.787 -0.0108679 -10.4093 2.26457 0.502192 1.07631 89.6824 111.587 110.95 0.871866 0.113265 -2.40448 114.792 2.27113 99.8073 87.1518 -10.495 114.745 0.984433 81.0419 116.037 116.844 115.616 2.39547 1.96605 89.5457 2.36054 3.29327 -8.51863 110.402 110.091 91.959 -2.54683 -6.66352 0.782219 1.95091 109.193 2.79745
0.268678 -4.3731 81.6064 40.9319 113.098 1.15007 0.734569 118.393 0.251352 0.735784 1.82501 118.557 3.08053 76.862 116.035 0.688461 49.3898 59.3832 54.5504 76.1019 0.00179984 108.773 1.00742 2.44611 -0.0238593 0.437363 0.87407 2.11329 115.861 2.97507 109.748 0.537096 3.27786 2.65857 -2.14272 2.85186 1.4364 82.9992 2.87819 80.9629 112.981 111.569 -7.27321 2.90074 0.0273785 0.66864 112.829 -3.54421 116.944 113.439 3.45165 2.68501 111.87 105.412 -0.146054 80.52 1.53006 113.856 -6.13652 -0.79403 0.0693196 -3.18137 63.1899 0.0392978 2.87854 1.0075 112.391 0.305619 117.331 75.5625 2.65754 1.03857 113.398 0.107481 113.143 3.15803 114.444 111.284 1.56401 1.72193 0.440493 113.573 72.3191 90.9505 -2.48143 78.7423 55.2098 2.84884 -1.19959 2.37619 112.255 0.0584304 -7.91208 2.8373 0.396191 0.52022 85.9749 113.356 111.289 0.543642 -0.117452 -1.8871 114.189 2.21102 88.5046 84.3086 -8.31083 110.44 0.821054 79.6985 115.158 113.417 113.796 28.1246 2.16058 94.274 2.81538 3.47692 -7.39774 114.057 110.056 89.408 -1.76857 -3.87098 0.626474 1.51785 106.805 2.783
5.06466 8.57448 5.24081 8.03183 6.81844
