-2.46853 -6.72103 -0.102628 -3.27284 -0.833901 1.62452 -2.13725 -1.33241 5.45614 -2.1178 -2.57527 0.144487 -4.38343 0.641547 -1.57815 -2.03223
1.49071 -2.4479 0.0733658 -1.4105 -2.80228 -5.1726 1.04089 2.84326 -4.2387 3.64703 1.88126 -3.02001 -2.64155 8.9047 -1.51881 0.830331
-3.0273 -3.56977 -5.90003 -1.68157 -1.82928 5.31352 1.9386 -2.43783 3.10289 1.98734 1.62296 -1.04657 0.697347 -3.07204 2.76882 -3.76155
-1.2003 1.04031 1.44386 -0.486876 -0.868237 -1.55215 -3.28821 1.21695 2.46077 0.300188 3.88625 -1.82286 4.12493 1.68077 -2.35165 0.566253
6.91311 -3.80528 -2.03575 1.70977 -2.81611 -0.809026 -3.01469 0.43082 -0.925006 -0.615689 5.07296 0.771513 0.229491 -1.22765 -0.106794 -0.669226
-1.13149 -0.210386 0.776376 4.51237 6.98288 1.23761 2.96132 1.97276 2.51286 0.780913 -0.310814 -0.759703 -2.1016 0.33681 -4.78358 -0.953204
-0.477917 -4.85321 5.09015 -3.67298 -3.13995 -0.186399 -4.78737 -2.74706 4.61011 -1.71344 -2.28194 3.1987 -9.26262 -0.38229 -0.418075 -4.42191
2.90858 2.48589 1.65084 -2.87419 -0.827436 -5.30525 -0.771851 1.13914 5.1127 3.56584 -4.22311 -2.34495 5.67372 -3.10234 0.351437 -0.876617
5.87862 2.88835 -3.25668 -4.74085 -2.7548 5.25122 -0.855851 -3.50172 3.0496 -0.85003 -2.40854 2.21744 0.666832 -0.0350577 -0.630396 1.65408
1.89402 -2.21223 -6.07126 0.845628 -4.97765 6.91819 -3.25326 -3.74711 1.32848 0.862813 4.09075 0.465852 -0.317741 -0.835956 -1.58006 1.61545
7.27405 1.96592 1.23161 2.80112 -0.871112 2.36479 -0.709728 5.65372 -0.235156 0.999577 4.49683 0.103083 0.0578571 3.83476 0.731132 3.58979
-2.34411 0.443026 2.55262 2.9792 2.40237 -0.912653 6.66011 -7.16369 -4.01548 -2.59841 -0.978245 -1.3563 6.55386 5.62001 -1.82949 1.62166
4.91109 4.25012 -1.39829 -3.28806 0.971161 0.864234 -9.05391 -1.96822 -0.763369 0.92959 -0.668002 -1.19926 -0.638714 -0.463125 -2.68403 1.07962
0.744752 2.24971 1.9982 -1.59207 -0.496546 -0.63236 -1.18722 1.84275 0.935 2.02908 -2.68924 -0.662825 5.9388 0.203987 2.81407 1.27548
-1.51586 4.75748 -2.4494 3.86073 4.9552 -6.66852 -2.16901 -3.03346 1.71378 4.56858 1.86164 4.37271 -2.3989 -5.28812 -4.06328 1.33081
-0.709357 3.5113 -5.00882 0.185699 2.40046 -3.75676 -1.88086 2.21357 6.2393 -2.29237 -0.539212 -1.77581 -0.239906 3.39295 -0.186312 -3.80794
-0.0470362 0.701956 2.17241 4.00211 3.2313 1.87811 -0.28599 3.21494 -2.93331 0.160623 0.0481572 1.90641 0.213478 3.58138 2.37369 4.28433
-5.17596 -0.641444 -1.84191 -1.07303 -0.851442 -0.119292 0.570775 -0.319525 -3.95438 4.98689 1.47399 3.95457 -4.33433 -2.12953 -2.11192 11.6558
-0.115795 3.46485 -1.92562 -0.657935 2.18232 2.10734 1.60841 -0.375546 -1.28681 2.79493 -1.72483 -0.897826 0.265376 3.72214 -1.65179 4.12597
-2.75313 -0.941428 1.46553 6.67884 5.43431 -0.0840054 -3.6176 -1.20026 2.47133 -0.64557 -1.74349 2.89384 4.79768 -1.31409 -0.0404792 -1.99877
1.85647 5.28012 -5.55985 4.74913 -0.852536 0.461655 6.58555 -3.32811 -0.74097 1.24295 -6.49741 3.44695 4.9424 2.93186 1.95843 -0.525006
-1.89288 1.06058 1.69384 -1.99012 0.0275985 4.13947 0.858494 -1.81767 -0.838514 0.186133 -5.75326 0.12489 -2.05071 -5.4019 0.240096 7.43185
-1.91815 -2.81492 -0.312743 2.10575 4.9519 4.10496 -0.0120017 -1.41503 1.8396 0.746723 -0.115 -5.16574 -3.09884 -1.30381 3.75215 -0.156034
-3.37999 -3.62239 3.16949 -1.24306 -3.28548 4.85915 4.03768 0.660558 0.306137 1.13752 1.16121 1.01186 5.65865 1.40526 0.635591 -1.15474
2.15629 0.953073 0.461971 -0.0675515 3.93132 -1.8846 -0.974263 -0.935045 -3.67285 -1.5254 1.22614 4.6298 3.00097 1.1131 0.370058 0.995948
2.97269 -4.09552 -1.98776 -1.02573 -3.72485 1.00106 -9.49344 -3.35418 4.8716 1.62463 1.74777 2.59894 -0.893212 1.52712 0.574584 1.23422
-1.36354 2.06436 0.960112 -0.804199 -1.58421 1.70975 4.34686 2.86311 -3.00679 3.34766 -0.367703 -6.00994 -0.0988602 -2.72767 3.33153 -4.04427
-0.318563 -0.723937 0.68388 0.203996 -0.482945 0.636304 -2.14187 -2.18118 4.07791 0.403193 4.23078 -1.73202 -1.74608 1.22419 -0.687142 5.60956
-0.730998 -5.24733 3.69075 -1.37537 -5.98478 0.627338 -2.03865 1.40358 -9.03119 -2.11882 -6.1877 -3.14622 1.06587 -3.97411 0.15322 -5.79161
-1.61548 -0.373501 3.1509 2.20652 6.65987 -1.1971 1.8728 5.38002 -2.08464 5.18621 1.10818 -4.33228 -5.191 1.6843 -3.45316 0.570512
-1.87658 -1.52067 0.251491 0.279621 0.060795 -6.29497 0.494715 -7.54317 -0.375267 0.843492 -4.52429 2.58625 3.81614 -1.38782 0.650493 2.52432
-4.81155 -2.81652 0.0173842 0.187105 -1.99531 0.075657 0.670797 2.07079 -1.63379 1.49101 -3.169 -1.83745 3.74711 -3.93457 -2.31823 -1.91155
-1.38997 -4.61889 -0.992616 5.28156 -4.43638 1.52838 6.10799 6.56826 -0.123045 -1.21077 -3.9001 -0.102624 0.191748 -0.536469 0.749524 -0.491242 2.0855 4.54944 1.2475 -5.11589 1.91913 -1.78693 -0.37103 0.493821 -3.01281 6.14072 3.93537 5.09377 -1.9046 3.43478 -1.35328 3.00307
4.88764 -3.87318 -4.94096 1.07503 -5.68429 1.19397 -0.845114 -6.51137 -2.16832 -2.12344 -7.85942 1.47182 -0.693168 -0.235168 -0.360149 -1.76409 6.56294 1.60627 6.21065 0.973447 0.0562578 -0.321782 -0.197469 3.2116 2.99496 -0.643757 -2.44395 -2.25528 5.23123 -3.4747 -1.37284 1.39793
-0.953104 2.54007 -10.6322 0.454494 -2.78138 -2.38657 2.68285 -4.62449 -0.192075 -4.0628 6.88662 0.608994 1.99866 -5.98592 -2.05909 -2.57396 1.9778 0.00532171 -1.0383 -1.38953 1.69622 2.20316 -2.55189 -7.84239 1.91312 1.23842 4.3388 -4.092 -5.61692 -2.20421 -0.447751 0.253194
-2.67898 -5.03637
